,0,1,2,3,4,5,6,7,8,9,10,11,12,13,14,15,16,17,18,19,20,21,22,23,24,25,26,27,28,29,30,31,32,33,34,35,36,37,38,39,40,41,42,43,44,45,46,47,48,49
BarackObama,0.08526146,-0.28369468,0.09058776,0.13079807,-0.3296817,0.026519308,0.08421999,0.26925415,-0.07852638,0.12785046,0.07010141,-0.019375607,0.13075115,-0.09531258,-0.07643448,0.23756777,0.08967981,0.11411243,-0.091327414,-0.18239546,0.1747603,0.044343058,0.04733004,-0.2647804,0.021858497,-0.028953424,0.04640056,0.0029059097,-0.19187462,-0.2049814,-0.13264133,-0.031665556,0.00983074,-0.20823446,0.070049204,0.06325387,-0.06975783,0.14181621,0.34067765,-0.08764675,-0.057507273,0.10170648,-0.14591865,-0.11655781,0.114369534,0.020866267,-0.072407074,0.16590779,0.021317754,0.12998214
nytimes,0.039938975,-0.12731813,0.07206569,-0.11274479,-0.19841714,0.058374025,0.09213874,0.22281922,-0.13048734,0.1994879,0.080396436,0.076774515,0.19571272,-0.22567321,-0.060273442,0.17859362,0.17880611,0.1429548,-0.10069053,0.110730425,0.13392332,0.115693465,0.078389585,-0.305896,-0.04839059,-0.14411357,0.15484375,-0.0063542733,-0.31047362,-0.07452425,-0.13324952,0.011588944,-0.010432476,-0.09421695,-0.01899279,0.07649106,0.0333664,-0.043059304,0.29615462,-0.16626324,-0.05268985,0.11395205,-0.16246049,-0.20765416,0.15334511,0.043731842,-0.07387405,-0.058047198,-0.1231232,0.16858402
Schwarzenegger,0.14677745,0.06860338,-0.14851359,0.19535242,-0.18961708,0.075208835,0.18010812,0.0884089,0.011891207,0.33250308,0.16836406,-0.09536891,0.014370819,0.081502385,-0.03678107,0.14754389,0.029408542,0.15241574,-0.035459775,-0.013691279,-0.004432632,-0.1766591,-0.23995297,0.0035241782,-0.20469014,0.02025347,0.2232073,-0.20891653,-0.23696467,-0.12642181,-0.12038504,-0.04668554,0.209489,-0.11968176,-0.1419103,0.15883218,0.21611638,0.15912119,-0.10384291,0.102879226,-0.14784266,0.1779142,0.032068904,0.018015211,0.17690232,-0.08320342,0.021788346,0.008491098,0.11316155,0.105873466
algore,0.1274372,-0.1625939,-0.1409195,0.09056763,0.05519635,0.03806643,0.03782749,0.11761512,0.15602334,0.19304462,-0.06390647,0.16831645,0.10968347,0.03546575,-0.08359723,0.38726568,-0.0972797,0.10101567,-0.12407805,-0.118515596,0.11510343,0.079737864,-0.06689289,0.057734944,-0.1316614,0.26236048,0.2566992,-0.057461776,-0.25765917,-0.032755878,-0.019618161,0.028278962,0.093401305,0.13216758,-0.2924809,0.010666716,0.1165691,0.16283685,0.30805555,0.06833344,0.05149348,0.0591475,-0.14331222,0.0006792981,-0.14756517,-0.072495475,0.15392293,-0.09601975,0.076285794,-0.026815824
maddow,0.23006023,-0.36266482,0.037113354,0.027982332,-0.42148688,0.06158533,0.14374186,0.35908556,0.016586822,0.009636743,-0.04116278,0.050463412,0.11343056,-0.12764393,0.041299507,0.28513932,0.0779985,0.14931905,0.011375132,-0.0156150935,0.15453064,-0.028397642,0.09578411,-0.08946797,-0.072427824,0.0702393,-0.056642625,0.13417065,-0.10498447,-0.15172319,-0.26063275,0.094160184,-0.089304775,-0.038081508,0.08095346,0.005872503,0.044769954,-0.09654755,0.19216281,-0.053819623,-0.08661109,-0.012189962,-0.12676708,-0.17707925,0.07715898,-0.05969493,-0.08539906,-0.06087172,-0.09699817,-0.023473397
FoxNews,-0.1084022,0.06444539,0.085446276,-0.2767405,0.09809589,0.1647676,0.081187166,0.2142044,-0.100050256,0.20966662,-0.026974756,-0.05769902,0.071204826,-0.14157309,0.02369087,-0.15590993,0.13668115,0.13816814,-0.20940731,-0.11998614,-0.15516685,-0.036818873,0.17516536,-0.23753911,-0.001160843,-0.05178408,0.28111365,-0.16091104,-0.18083152,0.045050994,-0.023712644,-0.19330963,0.0651272,-0.14963496,0.029064126,0.18103106,0.12611493,0.045187082,0.0024372549,-0.1660139,-0.10946401,0.048022117,-0.020710243,-0.034634646,0.16809216,0.32166806,0.10043894,-0.12660316,-0.10680002,0.15233433
MittRomney,-0.27845728,0.14709185,-0.060474936,-0.065645725,0.123846665,0.10816763,0.07404554,0.099354625,-0.116122425,0.1138078,0.0053540696,-0.2090925,-0.07650719,-0.10906392,-0.032385334,0.021748172,0.055097543,0.21977523,-0.25621173,-0.092776045,-0.026677271,0.016674526,0.13801712,-0.21931556,-0.10142055,-0.1460693,0.13832615,-0.12137146,-0.12221591,0.060613405,0.09363528,-0.23701836,0.08138508,-0.32225603,0.16561283,0.13961123,0.19174017,0.27639025,-0.011783838,-0.10104534,-0.026097612,-0.0026915271,-0.05094023,-0.007190313,0.021560207,0.27786,0.18669558,0.015066777,0.048351444,0.13754639
MMFlint,0.14393753,-0.21542272,-0.18043236,0.14381923,-0.3211591,-0.08189416,0.15460724,0.28974503,0.00537639,0.09845169,0.00529708,0.1813886,0.024808567,0.01222886,0.22504202,0.26244286,0.1466571,0.13985138,-0.15500528,0.09547254,-0.002030311,-0.037769094,-0.023894142,-0.14371847,-0.05403497,0.275506,0.09483085,0.20063739,-0.2194453,-0.2210167,-0.14070842,-0.06778561,-0.09241194,-0.099695645,0.13774428,0.033721514,-0.046979856,-0.061573356,0.10341927,-0.07733672,-0.24050479,-0.015727624,0.038380977,-0.090703905,-0.0050720638,0.03198236,-0.04645057,0.025555803,0.10618512,-0.092026
JerryBrownGov,-0.049885996,0.054798003,0.015402459,0.2886331,-0.108086534,0.22996083,0.23292916,-0.051997174,-0.06330986,0.18924935,0.09562832,0.028420925,0.16430414,0.02259133,-0.05298828,0.07730099,-0.13085459,0.37619364,-0.033804163,-0.16286117,0.051588688,-0.0683766,0.07312458,-0.06714727,0.1604475,-0.031234205,0.09351755,0.10737373,0.027887188,-0.118216716,-0.19329722,-0.092284195,-0.192536,0.15795742,-0.1533492,-0.10828566,0.09732017,0.16906577,0.044197664,-0.22390404,-0.09872786,-0.026533354,0.16445887,-0.04519843,0.09943095,-0.11418575,-0.12821527,0.04875955,-0.3202751,-0.14484552
SarahPalinUSA,0.15037116,0.012491879,-0.14715481,0.11726378,0.087305255,-0.025228843,0.19792524,0.064534955,0.13833827,0.07387155,-0.062683456,-0.07670559,0.077837735,0.0072914776,-0.0029054987,-0.22840972,-0.15314187,0.077369064,-0.1966332,-0.015965499,0.06566421,0.013345791,-0.062386118,0.17685959,-0.11598912,-0.1016805,0.43963498,0.059951812,-0.16812325,-0.056749485,0.09163846,-0.14820793,-0.051802322,-0.105049364,0.03648623,0.16645005,0.19050637,0.20521313,-0.20723787,0.15688877,0.063793026,0.019851653,-0.24867469,0.34957325,0.054938868,0.0025289361,-0.069072135,-0.016652646,0.08790226,0.118196376
current,0.2234608,0.17667466,0.10704091,0.054442044,0.045289394,0.1339165,0.33167243,0.33437043,0.055995695,0.12040169,0.18281311,0.14489166,0.014824825,-0.011001999,0.051095948,0.055000346,-0.025735565,-0.13192658,-0.18046468,0.1099505,-0.06214105,-0.16555125,0.12221984,-0.08346292,0.074316345,0.11239835,0.14875817,0.2254983,-0.054619055,-0.046209622,0.076688364,0.07233848,-0.14549623,0.17696996,-0.009447414,0.10232902,-0.048660293,0.05208283,0.04519921,0.17314257,-0.07761929,-0.1772679,0.044879038,-0.026936196,0.22840351,-0.2752858,0.21591923,-0.15695453,-0.054177746,-0.13736379
glennbeck,-0.09948773,0.12082335,-0.035940755,-0.17276329,0.0646192,0.058251157,0.26448008,0.21121506,0.03853443,0.093881644,-0.12423202,-0.121081084,-0.048777886,-0.025387237,-0.025162512,-0.22406594,0.01590388,0.14012407,-0.2869698,-0.11940399,-0.24910954,-0.11047082,0.2378874,-0.012003682,-0.050196406,0.042653285,0.2606518,-0.0683486,-0.049905982,0.07238011,-0.11117768,-0.16445695,-0.12616125,-0.12662336,0.13260832,0.23022932,0.13795435,-0.14748687,-0.21874194,-0.13386385,-0.015989505,-0.13788301,0.12752974,-0.061541006,0.093322106,0.24683161,0.07973144,-0.025233053,-0.1385465,0.110311255
KarlRove,-0.05505232,0.18334505,0.014756835,-0.114782,0.16808817,0.03334034,0.24209349,0.10364252,0.101733945,-0.0937258,0.10888967,-0.09052222,0.024500336,-0.05171481,0.013866558,-0.08017485,0.111150794,0.22841582,-0.3135017,0.034909282,0.048397366,0.0039566364,0.26658377,0.019981148,-0.14853421,-0.08049943,0.15766223,-0.04912619,-0.028414898,0.09243964,0.017040743,-0.18261988,-0.12752378,-0.13779971,0.010853046,-0.0018896085,0.25857598,-0.028330205,-0.2660866,-0.07837787,0.114141755,-0.04198681,0.20314024,-0.19693418,0.07958,0.27146962,0.29496792,-0.09202942,-0.11510201,0.04392103
KeithOlbermann,0.23212664,-0.31166047,-0.08716664,-0.021436905,-0.33425146,-0.0261227,0.11742443,0.43486908,0.12746781,-0.040081847,0.06277586,0.17387846,0.06773616,-0.037471313,0.17921129,0.14199671,0.12698147,0.2578446,-0.07050469,-0.03755707,0.09966062,-0.13526368,0.056546524,-0.00038334125,-0.18318415,0.024206996,-0.06523623,0.17951615,-0.053687498,-0.16335207,-0.16107515,0.06797179,0.013373103,-0.015614183,0.073245496,-0.13007873,0.08823343,-0.11109413,0.11058382,-0.14224866,-0.13737899,-0.07128947,-0.03609946,-0.20463318,0.013132922,-0.024157949,0.045089092,-0.050783716,-0.04698342,-0.118917644
RonPaul,-0.25472024,-0.05211936,-0.17044981,-0.0017927419,0.011579724,0.11697033,0.1953399,0.048520364,-0.031031441,0.22106582,0.009309686,-0.006245526,0.012830061,0.20299947,0.13062212,0.14002684,0.21712723,0.06704584,-0.10424444,-0.11276281,-0.14185789,-0.07829344,-0.015005153,-0.16950136,0.07665697,0.031931475,0.11857003,-0.037766967,0.03572971,-0.05481213,-0.06624494,-0.0073321494,0.18203913,0.099546984,0.14723937,0.049989697,0.100323014,0.20408586,-0.05477807,-0.34388286,0.16179307,0.11613327,-0.028809309,0.01231998,-0.22532684,-0.18844847,0.06822329,0.057221215,-0.007432443,0.4293796
SpeakerBoehner,-0.036131784,0.22565833,0.19490308,-0.1088734,0.19040856,0.16505879,0.08922883,-0.05511653,0.11933463,-0.023178808,0.0468576,-0.031854484,0.16768639,-0.06602886,-0.067198746,-0.005622207,0.041204557,0.30524883,-0.2544196,0.032265566,0.113706194,0.22311443,0.124470495,-0.19825059,0.009011556,0.11351195,0.10190359,-0.08382167,0.16926418,-0.046921153,-0.07593106,-0.2521973,0.12865737,-0.073333055,0.011132056,-0.009767419,0.24584176,0.09618628,-0.22429827,-0.22175872,0.1665579,-0.11730815,0.1070607,-0.06442204,0.05405445,0.09444984,0.22617379,0.029147847,-0.07014028,0.20606543
RepPaulRyan,-0.2766507,0.16255477,-0.096181825,-0.10899526,0.29205376,0.1478552,0.10793397,0.15821582,0.06637462,-0.07011717,-0.019668538,-0.13516991,-0.07465233,0.03817032,-0.15795784,-0.03680818,0.011529509,0.16745658,-0.22625779,-0.0692053,0.004057306,-0.011849238,0.22670081,-0.12270772,-0.09610866,0.0174702,0.14836773,0.062116507,0.027519042,0.013056604,0.08594399,-0.18748459,0.0013480332,-0.1771568,0.16463085,-0.08476262,0.23122199,0.18022883,-0.33412045,-0.0004165897,0.07066198,-0.1794751,0.14084548,0.1064129,-0.05573377,0.22639301,0.17466451,-0.07982239,0.13245924,-0.026571743
JoeBiden,0.054167137,-0.28910124,0.07171016,0.3591369,-0.16606611,-0.06851383,0.17508468,0.15916029,0.03446391,-0.08307987,0.19183213,0.0008848134,0.10653196,0.031598095,0.063444465,-0.00244651,-0.040127795,-0.08139658,-0.14606501,-0.23114899,0.057480045,-0.01698821,0.052937973,-0.13917479,0.06597953,0.1265713,-0.0047339364,-0.017833652,0.024933863,-0.11157442,0.11773971,-0.17682324,0.14437042,-0.23653236,0.15457372,-0.23458596,-0.16781391,0.38330662,-0.012113573,0.079666704,0.08013798,0.22415869,-0.12264243,-0.0151607245,-0.046893347,0.074436516,0.024501324,0.101106316,0.08675659,-0.082677685
NancyPelosi,0.028994406,-0.15151097,0.11937383,-0.010132743,-0.16239925,0.3150478,0.061171025,0.021253744,0.14566407,-0.02709806,0.02687811,-0.058901787,0.049193468,-0.01758024,-0.06081805,0.20364095,-0.18523268,0.2444475,0.07893648,-0.18661213,0.11130543,0.046135034,0.15553361,-0.1582004,0.056227136,0.3067976,-0.014290714,0.10181031,0.23271878,-0.23460859,-0.27076697,-0.067329,-0.025138672,-0.10332691,-0.019988045,0.06057918,0.15449128,0.30018738,0.24087738,-0.07918544,0.0069738245,-0.036800686,-0.15074554,0.021626024,-0.12832467,-0.09764344,-0.044313923,0.03881223,0.031856023,0.124485396
GovMikeHuckabee,0.052215658,-0.018834123,0.06724883,-0.21982658,0.12944643,0.019729495,0.15993051,0.04304013,0.20333283,0.108643495,-0.10615174,-0.1264454,0.14782289,-0.10589592,-0.12803568,-0.15355016,0.13517822,0.22081943,-0.37870404,-0.119519025,-0.13608028,0.011876768,0.17521699,0.07721592,0.037049595,-0.08343969,0.30111906,-0.23738505,-0.1627878,0.024897639,-0.054270234,-0.07963546,-0.15748577,0.065154165,-0.063867904,0.014071023,0.23198901,-0.10134361,-0.13551721,-0.055588722,0.07221408,-0.043146152,0.16193411,-0.12801091,0.08949102,0.09845388,0.23888133,0.078539975,-0.03359753,0.15366955
MegWhitman,0.021483809,0.039174058,0.13237542,0.15765375,-0.19974397,0.22295743,0.30049112,-0.016841445,0.022821601,0.22439441,0.10612361,0.010540281,0.13949612,-0.054479554,-0.14389053,0.17002802,-0.038246937,0.15701285,-0.24454327,0.010385256,-0.022978744,0.016343834,0.19713731,0.040779594,0.061219327,-0.1614085,0.25904992,0.022029396,-0.07597264,-0.18469867,-0.1621564,0.0807712,-0.13994989,0.1231794,-0.10640585,-0.0587846,0.08711332,-0.17544791,-0.010337038,-0.112313,-0.13879557,-0.13889489,0.103706196,-0.019872785,0.21853487,-0.023529956,0.0759581,-0.18632753,-0.22873326,-0.22859576
Heritage,-0.028566433,0.09885323,0.012425804,-0.16067562,0.24866837,0.11820595,0.25964028,0.10456455,0.056879647,-0.08254119,0.046075627,-0.03337151,-0.06211613,0.18561675,-0.07550353,-0.13211685,0.033386044,0.15689413,-0.14889573,-0.1369233,0.013983792,-0.001893721,0.20427115,0.049615957,-0.0004266449,-0.025530256,0.21599242,0.08384147,-0.009616277,0.014146597,-0.02537052,-0.13292731,0.0022339504,-0.09062838,-0.15654916,0.050844744,0.059798583,-0.06769206,-0.4064344,-0.09942729,0.1572624,-0.1611956,0.27974415,-0.038076125,0.046080973,0.33658874,-0.015754296,-0.20437671,-0.195404,0.07729518
Obama2012,0.03167504,-0.14740118,0.06537103,0.22335634,-0.04679643,-0.1619906,0.16762124,0.22946039,0.019005127,-0.07317653,0.19639345,0.026201198,0.12901646,-0.1282451,-0.063875735,0.030655982,-0.0800042,-0.20091632,-0.03868182,-0.23649359,0.15531172,0.081451334,-0.01685439,-0.20036724,0.08187491,-0.10595298,0.08030823,-0.022183115,0.070679024,-0.1131171,0.07380853,-0.18448958,0.024364011,-0.20494397,0.087541506,-0.152998,-0.18851867,0.3127821,-0.009030256,0.13135733,-0.09073685,0.15030019,-0.12046049,0.11590062,0.14820853,0.04627419,-0.08233739,0.33286908,0.20455104,0.0815136
RickSantorum,-0.08163923,0.0862015,0.010213378,-0.19685218,0.07295709,0.012048803,0.18573615,-0.049349222,0.020282935,0.040588025,-0.1548665,-0.11629852,-0.0046011345,-0.023425743,0.029545575,0.1910129,0.03900002,0.29917735,-0.1746847,-0.20301121,-0.09007236,-0.12042206,0.14575827,0.094037056,-0.013775402,0.042205967,0.26518705,-0.31068698,-0.069993764,0.1395068,0.04627664,-0.008301112,0.15714154,-0.25164577,0.2694159,0.033053353,-0.05961796,0.29969606,-0.028758265,-0.1442826,0.07635012,-0.17337668,0.12598418,0.21971768,-0.06743333,-0.08063422,0.07466672,0.09357458,0.024777057,0.11642439
THEHermanCain,-0.10013175,0.0033856397,-0.01570394,-0.21551755,0.097674854,-0.11819519,0.21767032,0.11405467,0.13216233,-0.039333347,-0.09447043,-0.17209677,-0.07019752,0.026298743,-0.15871753,0.057785194,-0.05638666,0.24356106,-0.24811488,-0.19515328,-0.3502522,-0.1960001,0.19630343,0.116261885,-0.21885912,-0.047360342,0.07146971,-0.101934195,-0.03179306,0.06907589,-0.041599818,-0.18837756,0.20280583,-0.07120368,0.13221401,0.024635643,0.11044892,0.1399384,-0.29068235,-0.07885637,0.04348866,-0.19264193,0.13757361,0.08719489,-0.014643166,0.10341021,0.07924251,0.09881215,0.05218381,0.04172999
johnboehner,0.0026303905,0.16496062,0.15780038,-0.073830135,0.20845398,0.11770576,0.098899156,-0.09291133,0.14450835,-0.04074285,0.045319777,-0.020457832,0.25252333,-0.07781842,-0.056918353,-0.021734528,0.108002566,0.25075847,-0.37883624,0.040339977,0.17363553,0.19208533,0.19493175,-0.11307974,0.020559287,0.07434468,0.11970893,-0.052054115,0.11966618,-0.051696263,-0.047420997,-0.2512125,0.046619892,0.011676352,-0.017660383,0.014506784,0.1895641,-0.027632013,-0.25126758,-0.20237915,0.086657695,-0.16103062,0.19429357,-0.054474823,0.0021965425,0.091705866,0.23610741,0.010944034,-0.14155823,0.15230732
limbaugh,0.09537209,0.09789684,0.07146557,-0.09904517,0.013222465,0.02017716,0.22197683,0.22462215,-0.01899484,0.10335989,-0.037731443,-0.2124239,-0.11500703,0.085860424,-0.002533692,-0.063698865,-0.04336988,0.13974616,-0.008124059,-0.16630894,-0.12447909,-0.17802978,0.13181224,0.16508074,-0.020452557,0.11668296,0.37594697,0.12905547,0.16266142,0.12591353,-0.17707232,0.005139419,0.07075722,-0.18147157,0.26325744,0.1419528,0.14346236,-0.13375287,-0.12640187,0.008634585,0.13600978,-0.11639077,0.17100604,0.032372463,0.0023965077,0.3489301,0.10680529,-0.08162779,-0.10456606,-0.046401776
democracynow,0.07284059,-0.12141797,-0.17896022,0.08038148,-0.032113176,-0.00784796,0.2677216,0.3483815,-0.0886596,0.007578462,-0.01360507,0.12701352,-0.019473774,0.0026944058,0.14552341,0.1469458,0.0702027,-0.099212885,-0.18736519,0.004151996,-0.10485655,-0.12295254,-0.22121105,-0.3138544,0.024273716,0.14104393,0.036156878,0.3350927,-0.16270196,-0.027509315,0.003604864,-0.021029927,-0.09958566,-0.019465147,-0.102914505,-0.005437902,0.11720781,0.22316836,-0.0040416364,0.07697415,-0.03496197,0.04054309,-0.19910514,0.0015035305,-0.07560116,-0.17506412,-0.24046507,0.14380667,-0.1186974,0.18127412
RepRonPaul,-0.16606793,-0.08620837,-0.22488059,-0.0050736573,0.051582947,0.15989882,0.18156287,0.15982008,0.107062496,0.15514481,-0.029405704,-0.047661014,0.06243053,0.22221811,0.056037657,0.17466794,0.19567396,-0.1647146,-0.16310573,-0.087567665,-0.23752485,-0.05943429,0.0048440713,-0.12358276,0.014888779,0.006880718,0.11715555,0.10182908,-0.029671269,-0.08606909,-0.17207891,0.057243407,0.1295086,0.15586229,0.096691415,0.033716165,0.048345897,-0.08800666,-0.18902217,-0.3680936,0.10563418,0.037729457,0.019552378,0.08465656,-0.23389263,-0.18287551,-0.080337994,0.07087645,0.072496906,0.32204512
TheDemocrats,0.07770375,-0.23933913,0.08627124,0.19129965,-0.017893286,-0.03823017,0.2469615,0.15114771,0.18093392,-0.17883375,0.15525565,-0.036349323,0.035226267,-0.12010962,-0.07904876,0.15092471,-0.08167223,-0.04890694,0.14858405,-0.3822311,0.038026977,-0.063641146,0.003592456,-0.22118656,0.21810712,0.01332796,0.023465713,0.14633438,0.19576082,-0.13076527,0.11436053,-0.052058388,0.1466502,-0.07285878,-0.08134227,-0.022020372,-0.08843648,0.24301197,0.11172134,0.148201,0.16576627,-0.036876313,-0.032676596,-0.22712186,-0.1158654,0.07268364,-0.005941376,0.062920414,0.16133766,0.18474211
thinkprogress,0.039795686,-0.1650386,-0.055746008,0.12859128,-0.24868906,0.03523212,0.33130327,0.3745811,0.04428866,0.09949397,-0.10221484,0.08412853,0.07467568,-0.23753817,0.10943379,0.089647315,-0.038899895,-0.09344622,-0.07261764,-0.13472752,0.05975303,-0.05174139,-0.0747102,-0.20954515,-0.007945393,0.017900083,0.1226064,0.09869702,-0.2172542,-0.07671857,-0.07739011,-0.15589726,0.01765521,-0.16802695,0.0721186,-0.10600001,0.0148669435,0.17228103,0.07057477,0.2579923,-0.03518595,0.16713652,-0.33827037,-0.12530465,0.061153762,-0.03329903,-0.06271373,0.060933433,-0.012114542,0.103272766
OccupyWallSt,0.14925972,0.10326089,-0.23200016,-0.0106222415,-0.025684886,-0.14273116,0.25484267,0.13050546,-0.06424847,-0.16035558,0.014940937,0.2787366,-0.14557089,0.06489714,0.09786095,0.17306247,0.1714005,0.12961994,-0.20436314,0.20236145,-0.0037302666,0.08637003,-0.13075696,-0.31447247,0.026886703,0.06057081,0.07320612,0.23965074,0.0026733142,0.18201189,-0.20684521,-0.15159607,0.02529694,-0.010914353,-0.075567774,0.052009854,0.06650153,0.059477124,-0.12019538,0.09046931,0.046549365,-0.10305584,-0.008938662,-0.03157036,-0.1601562,-0.02348052,-0.27040407,0.1690374,-0.18998829,0.036911376
HRC,0.14865637,-0.24818125,0.034615085,-0.060247943,-0.030283121,0.19598341,0.21182057,0.06175973,-0.2843379,-0.1338137,0.03230145,0.11395955,-0.004141125,-0.08382405,-0.3098893,0.19307223,-0.067379124,-0.24530877,0.20479348,-0.18805008,0.13246302,-0.013867006,-0.23374234,-0.12801512,0.096738845,0.07112206,0.021188973,0.042095646,-0.058998473,0.006091648,-0.124468446,-0.040224303,-0.1676022,-0.2037059,-0.181782,0.24850509,0.10575029,0.016289225,-0.066650994,0.034302186,-0.14374813,0.025025638,0.01428341,0.15305567,0.034607835,0.021117775,-0.12329498,-0.045028854,-0.20462056,0.123170786
MicheleBachmann,-0.018295757,-0.00019148698,0.097551115,-0.26030183,0.20527223,0.008986005,0.2971982,0.014636898,0.11887118,-0.16651036,-0.14579917,-0.22438037,0.04043825,-0.037631605,-0.23188253,-0.02688175,0.021687618,0.31544936,-0.18691906,-0.23951933,-0.095345326,-0.11260945,0.060679913,0.2201708,-0.10798016,0.06596734,0.18656854,-0.04978572,0.08345269,-0.010727994,-0.18938053,-0.105573654,0.05168054,0.03827788,0.011232549,0.06379888,0.0050988733,0.017648164,-0.25023946,-0.16026458,0.11075028,-0.17074637,0.20914572,0.19176446,0.0036586658,-0.025840003,0.10468649,0.08131962,-0.025709936,0.09592666
GovernorPerry,0.018293053,-0.20164692,0.06955659,-0.09852808,0.07648964,0.10366312,0.13224432,-0.08032184,0.114264086,-0.064822376,-0.10745297,-0.19893868,-0.16094103,-0.051170975,-0.19602911,0.29296646,-0.028970037,0.13141894,-0.22680478,-0.23452297,-0.092317365,0.035641514,0.07932203,0.18960334,-0.09338133,0.12734379,0.18326168,-0.26092705,-0.110111415,0.052249625,0.0020108302,-0.08643626,0.095841765,-0.19210927,0.07664285,0.024614632,-0.022821393,-0.015713172,-0.38895842,-0.22956145,0.0034099058,-0.0734093,0.041274007,0.04092068,0.02948009,-0.2309497,0.15640567,0.047183383,0.09004806,0.046189032
DWStweets,0.02973559,-0.18980865,0.17865422,-0.0035783225,-0.18277821,-0.004027093,0.2588597,0.054332897,0.16424322,-0.13700333,0.11099694,-0.13706489,0.11634682,-0.06587672,0.079910256,0.10941407,-0.21435793,0.19274978,-0.0018715014,-0.09257093,-0.0031309961,-0.12513912,0.27247414,0.012396055,0.049157493,0.21800272,-0.04373656,0.16212426,0.31083986,-0.13399361,-0.034372006,-0.029125176,-0.14829944,0.014846304,-0.116990976,0.1103752,0.026205702,0.15544988,0.03635977,0.26443678,0.0005702644,0.029652644,-0.19644731,-0.1946931,-0.18540478,0.022437025,0.022540657,0.11660719,0.2392884,0.10198663
ClintonTweet,0.2214683,0.022863442,0.05003054,0.10976594,0.19533162,0.05529968,0.30546582,-0.09618267,0.15264301,0.10716849,0.12068707,-0.18312533,0.1332326,0.06814666,-0.20223685,0.051081646,0.1811047,-0.13347013,-0.21418096,0.077385224,-0.08285365,0.18385105,0.080565676,-0.023392346,-0.038907636,-0.059173636,-0.05456483,0.053967457,-0.2112113,-0.14028235,0.039359774,-0.11300745,-0.12447441,-0.14329079,-0.27510265,-0.19139005,0.075923905,0.22373301,0.22912729,-0.09037423,-0.13921139,-0.054022357,-0.17078075,-0.062008325,-0.089578725,0.022314953,-0.22142436,-0.03676627,0.019383598,0.15559097
SenSanders,0.15531294,-0.18527901,-0.067996524,0.029035086,-0.11292844,0.04319654,0.12735802,0.24458282,0.08672358,-0.13796657,-0.04998124,0.1323026,0.09982779,0.08365415,-0.033854578,0.29910606,0.12523718,0.28767908,-0.14483975,0.186442,-0.07549348,-0.0133721,-0.14119293,0.024599213,0.015736796,0.21018498,-0.06926013,0.4246174,0.054138713,-0.09962729,-0.019078258,0.14312173,-0.13247733,-0.058147524,0.17856887,-0.03826229,-0.050851446,-0.06754693,0.06211065,0.035877008,0.19701242,-0.17423037,-0.070713885,-0.026268259,-0.16345319,-0.1355592,-0.17150943,0.14565551,-0.014646791,-0.10043939
GOPLeader,-0.10349043,0.14409858,0.04098365,-0.21428142,0.2465475,0.13191783,0.08894141,-0.03323734,0.30510163,-0.14697994,0.09614247,-0.058391742,0.13256031,-0.052621134,-0.20551418,0.08598266,0.12795147,0.2010447,-0.1739332,0.057615686,0.20422244,0.09430787,0.11603883,-0.042810597,-0.034892187,0.014687109,0.10498319,0.10069536,0.10366694,-0.15424886,-0.14477438,-0.19835642,0.09623126,-0.042089622,0.05774713,-0.044153843,0.21502383,0.0506544,-0.36655092,-0.036602534,0.22138035,-0.11426073,0.21134679,0.098004974,0.103433914,0.12465221,0.083210565,-0.05054034,0.07811228,0.06116976
GabbyGiffords,0.022685276,-0.03268189,0.3894985,0.13205566,-0.0484525,0.07257771,0.11727281,0.071084574,-0.060929254,0.016282436,0.12666564,-0.077898376,0.38347304,-0.04126358,-0.17797464,0.093319595,-0.023242343,0.055805262,-0.17591597,0.014878123,-0.16428643,-0.15864603,0.026130317,0.009943294,0.05241745,0.2770858,-0.06354045,-0.008103984,0.20997532,0.002506631,0.05632382,-0.18666297,0.12900849,-0.16596784,-0.040000506,-0.14954221,0.05079634,-0.012963379,-0.11694001,-0.09372768,-0.09479059,0.2486979,0.1537683,-0.050341778,-0.16277187,-0.27721724,-0.012414578,-0.16884504,0.058124594,-0.09143297
GovGaryJohnson,-0.19325252,-0.18344867,-0.22017007,0.00028093476,0.028395707,0.023565466,0.07096327,0.02355381,-0.11269498,0.06987914,0.17350154,-0.13106354,0.083640784,0.21943836,0.09909216,0.098430164,0.27158144,-0.16140918,-0.210802,-0.20308794,-0.14972676,-0.18424445,-0.057682898,-0.1597889,-0.06723182,-0.09571193,-0.009285547,0.077107675,0.08374019,-0.03269564,0.13894247,0.20864877,0.0662394,0.08954772,-0.008104904,0.059606563,0.14089175,0.26900855,-0.31838307,0.07648204,-0.03717454,-0.04959286,0.13670412,-0.120611645,-0.039100543,-0.09207894,-0.18059042,0.14789562,-0.17352456,0.15988861
alfranken,0.31526333,-0.25751343,-0.17841129,-0.0063213753,-0.05431888,-0.018368782,0.11901473,0.30384862,-0.030685788,-0.10184059,-0.12088161,-0.03723799,0.16049115,0.13586143,-0.017185405,0.12827489,0.14405757,0.320819,0.061972912,-0.0018579059,0.06149562,-0.17923366,-0.22120321,0.006725,0.011413618,0.13319324,0.073996566,0.24939679,0.19371364,-0.14898422,0.12767799,-0.061665103,-0.17643988,-0.052300245,0.11653399,-0.1732024,0.017898284,-0.048653558,0.21207649,-0.050616782,-0.12040912,-0.13037299,0.11699884,0.074437484,-0.10226282,-0.05076501,0.08560418,0.11051083,0.09221574,-0.08438392
AllenWest,-0.09972663,-0.019058896,0.0074762776,-0.15737993,0.08043015,-0.049835976,0.13846713,0.10858493,0.12771396,-0.08882301,-0.086706154,-0.19092925,-0.015800346,0.1504557,-0.1020579,-0.029386964,-0.15054154,0.16996886,-0.060735133,-0.15153113,-0.19994156,-0.17410465,0.16867095,0.12806925,-0.088555746,-0.02590095,0.22276981,0.14716186,0.07313413,-0.06358752,-0.07581877,-0.14655827,0.06538268,0.0036151255,-0.008976401,0.13031323,0.21780309,0.072666004,-0.47463933,0.06617705,0.14308065,-0.14358838,0.12498409,0.18505183,-0.023756126,0.31253886,0.020064004,-0.08584109,0.068826005,-0.086107664
dccc,0.2758499,0.045807354,0.046298016,-0.02232808,0.0078298785,-0.13769387,0.42389178,0.06820162,0.1050262,-0.24740618,0.019984439,0.013970158,0.28004298,-0.05587902,0.056013297,0.10369793,0.010754905,0.104513,0.2898334,-0.27004832,0.3036864,-0.00016104868,-0.057507902,-0.083062194,0.046392906,0.08325499,-0.009787626,0.024102949,0.12740012,-0.033469956,0.01353989,0.06994871,0.04150183,-0.023714563,-0.011677463,0.10253521,-0.32187837,0.0717129,0.068879984,0.014231817,0.039433762,-0.21349746,0.025490785,-0.13450201,-0.051280886,-0.10565368,-0.14406042,-0.09596175,0.04996498,0.07869012
clairecmc,0.11435146,-0.13523167,0.00083803054,-0.26474112,-0.26442373,0.047593843,0.053781204,0.025633002,0.14415121,-0.005214763,0.17873064,-0.16153343,0.1629309,0.0061328714,0.024532337,0.11528052,0.10436092,0.01595076,-0.031229757,-0.06080434,0.19403341,0.083487,0.18478104,-0.19338597,-0.14354278,0.2734091,0.010848497,0.01849483,0.17310764,-0.02046364,0.09385431,0.09436861,-0.33426598,-0.20249334,0.0055632675,-0.16254783,0.09302952,0.019430052,-0.04541796,0.17259897,0.14312339,0.2184972,0.14286388,-0.23754974,0.103377305,-0.16339839,0.036251836,-0.01801444,-0.14727023,-0.041762162
timpawlenty,-0.21598002,-0.14445773,0.0010215453,-0.25791255,-0.059152856,0.050846398,0.25210264,-0.09260259,0.09121987,-0.17384928,-0.05764909,-0.0062716505,0.165843,0.045520887,-0.2290914,0.1046999,0.11131568,0.21521117,-0.36911878,-0.09631541,0.02247809,0.024601493,0.013677006,0.103084706,-0.18028362,-0.06788966,0.21907046,-0.13025458,0.14304928,-0.14517903,0.03786386,-0.00045170164,0.068101004,0.056507163,0.073124595,-0.1299048,0.1653797,-0.023645459,0.034466196,0.09336546,-0.07362762,-0.22470656,0.29808107,-0.056076244,0.028103694,-0.1121102,0.20099448,-0.0008042564,0.13961734,0.050906386
Senate_GOPs,0.030067695,0.14477342,0.060761563,-0.21045548,0.03143429,0.26618755,0.2571059,-0.053453833,0.19346626,-0.1108355,0.06688076,-0.03464625,0.15815443,0.17510745,-0.03200209,0.082763076,-0.0046756803,-0.0036934651,-0.178241,-0.17010105,0.11708424,0.11224588,-0.07374637,0.049891707,0.008292552,-0.07342821,0.13233188,-0.08946628,0.105331905,0.0928316,-0.09512589,-0.23303173,0.2852033,-0.12808914,-0.10144702,0.12665369,-0.071735695,-0.16585624,-0.31306368,-0.030600226,0.2949207,-0.034744985,0.217035,-0.01976454,0.0038656772,0.15715499,-0.0394869,-0.20097212,0.054123998,0.021069266
SenatorReid,0.20473886,-0.10181972,-0.11591763,-0.033683304,-0.110936135,0.28672388,0.06058,-0.08019063,0.18664469,-0.16804701,0.05898451,-0.11188943,0.23604211,-0.047821444,0.10231803,0.07057556,-0.2213831,0.15273704,-0.12314343,0.013163805,-0.08467626,0.09056976,0.1547849,-0.08136137,0.042166926,0.33855754,-0.053873345,0.09039952,0.32910812,-0.15688346,-0.25909257,-0.06350613,0.13170686,-0.16159949,0.036018454,0.06603488,0.12149951,0.17753287,0.08461453,0.025456144,0.08009408,-0.12604599,-0.2222342,0.077593595,-0.030329624,-0.082294695,-0.029303478,-0.037009306,0.010982629,0.14089419
RepWeiner,0.04875083,0.12005712,-0.011223656,-0.1662748,-0.17828465,0.0014674852,0.00076365436,0.20862585,0.12513202,0.024748659,-0.0205963,0.12887488,0.010649372,0.05678712,-0.27043912,0.2554931,0.03641437,0.2484094,-0.12209999,-0.20520979,-0.1536791,-0.06320307,-0.06124506,-0.069704205,-0.102346264,-0.0008979191,-0.30786648,0.03335802,0.15312646,-0.03301078,0.029919544,-0.09471127,-0.2398349,-0.23093292,0.19445476,0.06184862,0.11179919,0.06744463,-0.03117145,-0.16139269,-0.13210653,-0.100387774,0.092187844,-0.07393382,-0.20778842,-0.19092144,0.08616148,-0.260652,0.003249618,-0.122348234
DarrellIssa,-0.123273574,-0.1673638,0.042383566,-0.20996943,0.07792918,-0.16956569,0.17121044,-0.17698939,0.16679375,0.031012194,-0.063641585,-0.13502276,-0.049940404,0.1369926,-0.05612203,-0.12035218,-0.09631285,0.008272318,-0.04260976,0.07871302,0.0849236,-0.055115923,0.226752,-0.03901206,-0.015064424,-0.066090226,0.41858798,0.37624666,-0.117412254,-0.14622523,-0.0039956025,-0.12981525,-0.09768932,-0.07500424,-0.058834292,0.099375114,0.18106195,0.106964506,-0.35811687,0.111524455,0.16211693,0.0037722455,-0.109436706,0.0067530833,0.101825625,-0.014548767,-0.04979495,-0.022716762,0.04175307,0.06694738
ChuckGrassley,0.04570555,-0.1207324,-0.19470647,0.06989715,-0.121632844,-0.18308607,0.106056936,0.089446254,0.26229906,0.018445075,0.05602628,-0.32449904,0.14938872,0.3144256,-0.13533813,0.09241212,-0.1212594,0.053072844,-0.14758864,0.118548885,0.04291506,0.24342647,-0.12754749,-0.13065319,-0.2060241,-0.11038883,0.10669671,0.0841232,0.16355929,0.13174802,-0.19930805,0.0011899901,-0.1938714,-0.11337749,0.009015966,0.068838716,-0.17823365,0.14008623,0.040040355,0.12930171,0.10798203,0.060637657,0.16607068,0.093826756,0.07456282,-0.056881253,0.18788454,-0.097553775,-0.11091818,-0.0053404556
elizabethforma,-0.025863504,-0.018808998,0.016887804,0.24539417,0.17811675,0.0422907,0.2551927,0.15834203,-0.04365236,-0.100078434,-0.032676477,-0.22440046,0.20985673,-0.034870505,0.1422306,0.28944084,-0.11385154,0.05638373,0.109273024,0.12138052,0.12820438,0.02514356,-0.17323081,0.06253672,-0.0549554,0.12507083,-0.15649642,0.15095474,0.054355677,-0.10555008,-0.09592494,0.06276344,-0.20804124,-0.20079859,0.049499102,-0.016512597,0.14952673,0.068315566,-0.23606656,0.20602842,0.16451363,-0.08004856,-0.22915696,-0.15381417,-0.15701087,-0.11793453,0.0159049,0.092799395,-0.17038283,-0.13248695
ScottBrownMA,-0.24384609,-0.2024809,-0.008354609,-0.056198727,0.07795553,0.14655204,0.2951136,0.05830446,-0.01625718,0.19002481,-0.109381065,-0.35900187,0.25564498,0.061269075,-0.11102542,0.035117045,-0.0809976,0.0385901,-0.10025204,-0.029757483,0.096206926,0.032270614,0.07921127,0.0120325,-0.09458959,-0.22547255,-0.13361253,0.016324135,-0.10128244,-0.2478399,-0.13806938,-0.0098357685,0.041570168,-0.15048333,0.20858097,-0.16660208,0.046493154,-0.09200981,-0.11938193,0.092678145,0.08260765,-0.1332441,-0.038312595,-0.18046445,-0.08902196,0.16781281,0.20004348,-0.06540213,-0.15999612,-0.14223991
TomCoburn,-0.14403751,-0.29833484,-0.088313885,-0.22198291,0.11036816,0.21816637,0.07129862,-0.09902489,0.0068043466,0.0800677,0.027332462,-0.09475053,0.20615633,0.33469483,-0.14924638,-0.0729984,0.15706187,0.069716364,-0.11870878,0.0329714,0.14366497,-0.018421315,0.12299443,0.09876396,0.230412,0.15443945,0.29440206,0.06500801,0.01924753,0.021289818,-0.28586903,0.03158221,-0.04645541,-0.16848335,0.084131785,-0.096367136,0.08252131,-0.031003842,-0.13903888,0.14770977,0.01439106,-0.06680132,0.24876736,0.1984134,0.014796882,0.0008477585,0.0008464068,0.047400646,0.01553483,-0.117422394
SenGillibrand,0.053808626,-0.13581406,-0.17952496,-0.21461846,-0.09100626,-0.002781305,0.1813842,0.12852497,-0.08978928,-0.1771517,0.11826352,-0.10558794,0.22036721,0.06611198,-0.25413087,0.06704807,-0.18807083,0.060384445,0.1791444,0.2377414,0.018116545,-0.15932295,0.12873264,0.052939784,0.09752779,-0.018877776,-0.024199367,0.031663243,-0.019472156,0.059114132,0.08333204,-0.32470405,-0.2900054,-0.11809078,-0.13669366,-0.09770315,0.13397592,0.053775847,-0.094175085,-0.104836635,-0.07978017,-0.022778379,-0.13346566,-0.2208528,-0.10476343,-0.2236557,-0.14520009,-0.15026101,0.019633105,0.100737035
NRSC,-0.053766616,-0.05920291,-0.25814572,-0.037316356,0.13899006,0.21813641,0.2930663,-0.03718332,0.02660323,0.16438627,0.018927854,0.12274439,0.2163474,0.07873048,-0.21274862,0.0030983759,0.14544278,0.11824959,-0.0033852058,-0.16045207,0.2712796,-0.019886678,0.24370979,-0.035970807,-0.11822399,-0.16685267,0.097294204,0.040592935,0.09092859,0.29262578,0.16013703,-0.037603732,0.07113903,-0.0063240808,-0.0062276665,0.120087154,-0.14443068,0.11166673,-0.22456118,0.0621295,0.098732896,0.05322104,-0.10885878,-0.070126675,-0.012831249,0.14401305,0.20537688,-0.21344905,0.11561911,0.04443142
NRCC,0.04597269,-0.0003403881,-0.19127741,-0.0061376737,0.07719646,0.19855134,0.2736419,-0.0975711,0.14944482,0.016093582,0.016458945,0.05030931,0.25087035,0.11230158,-0.122726694,0.19468045,0.20084935,0.15899378,0.040619988,-0.06712627,0.29997024,-0.028804036,0.24568056,0.111161925,0.0019564773,-0.22712342,0.18426998,0.00951216,0.14001915,0.15016735,0.1942643,0.067225985,0.16660218,-0.09080815,0.0515125,0.16468626,-0.02560136,-0.021359751,-0.24417998,0.05295568,-0.06323014,0.086545,0.038772546,-0.050905153,-0.03508212,0.14668016,0.041461825,-0.23811537,0.14887653,0.15490516
ChuckSchumer,0.12429114,-0.05726235,-0.18130663,-0.20138577,-0.073293954,-0.085568205,0.100778736,0.18528348,-0.009851956,-0.29888293,0.1786656,-0.00281748,0.13635948,0.23397984,-0.0894491,0.18078367,-0.24269284,-0.0014880853,0.049013704,0.25329039,-0.08160291,-0.07644579,0.13403122,0.109493665,0.12612744,-0.14388585,0.014068978,-0.062784314,0.06113417,-0.014902109,0.15100802,-0.40112984,-0.089235306,-0.21227548,-0.014604125,0.028911825,0.017110506,0.20237944,-0.033660144,-0.13360304,-0.08925015,-0.12833382,-0.10095121,-0.14329602,0.00070656266,-0.17931105,-0.0519515,-0.098032534,-0.07060576,0.0057611903
RepMikePence,-0.078088254,-0.2801053,0.09965987,-0.19686632,-0.01255662,0.09026566,0.016883643,-0.1663032,0.21257362,0.0045148637,-0.008013657,-0.17282525,0.26688626,0.16364971,-0.21339981,0.057505548,0.11380866,0.18730786,-0.069258414,-0.060335092,-0.0070394007,-0.04704823,0.18117921,0.0015675332,0.13178062,0.072519094,0.2266187,0.16731675,-0.029757353,-0.03757351,-0.20385443,0.14735158,0.18098162,-0.13626729,0.03543289,0.018830055,0.042891003,-0.06844694,-0.19468898,0.07979201,0.02094162,-0.2551963,0.3638685,0.12256776,0.057079997,0.11540904,0.036876,-0.074788935,0.012969375,-0.09481127
ThadMcCotter,-0.01544143,-0.022422297,-0.08802656,-0.1275728,-0.13654543,-0.080531515,0.21073388,-0.07960106,-0.21333703,-0.11023963,0.23368986,-0.2219392,-0.023553282,0.20076609,0.10130688,-0.006726617,0.09088257,0.10620233,-0.037485585,-0.1183396,0.15323718,-0.08778352,0.16473164,-0.041351885,-0.24998169,0.09228748,-0.06994994,-0.11810068,0.13226372,-0.13442376,-0.37761486,0.022710107,0.026854832,0.069596,0.036786534,0.14257956,0.02160732,0.14892522,-0.31798315,-0.053729333,-0.05823598,-0.167714,0.25300696,0.1287786,-0.0035297251,0.08882865,0.17393357,-0.066993825,-0.1068488,-0.055538446
gopconference,0.0905893,0.1265489,0.11943518,-0.21385787,-0.06213885,0.33466268,0.24110784,0.027083363,0.23518768,0.06664905,0.18435828,-0.028543763,0.1920288,0.19208199,-0.10035808,0.021396676,0.118060604,0.07917104,-0.10466415,-0.14551733,0.10043023,0.13792722,0.12597533,-0.028799884,0.11028586,-0.19138484,0.124326795,-0.07246896,0.24223636,0.034116164,-0.10001445,0.014259203,0.25546074,-0.13689943,-0.03274208,0.15106103,-0.121425994,-0.21493699,-0.25143048,0.018098002,0.16134776,-0.029695036,0.13501404,-0.07099596,0.085891694,0.04704864,-0.047040418,-0.09971012,0.14188324,0.007675151
HouseDemocrats,0.12552072,0.02783285,-0.11887677,-0.038586166,0.10914012,0.24817063,0.21015187,0.009476734,0.21223661,-0.17425038,0.03489818,-0.05697624,0.11203597,-0.07750821,0.052557517,0.20407788,-0.1231535,-0.06649993,0.026816044,-0.28300783,0.08564142,0.061487187,-0.071555205,-0.22294648,0.39561045,0.0028893377,0.03517706,0.16445859,0.19458899,-0.08209326,-0.0148023665,-0.14535901,0.24302799,-0.18697636,0.06998159,0.06773578,-0.008697266,0.06834151,0.13964903,0.011142967,-0.04726013,-0.10838418,0.11867801,-0.20028983,-0.08819171,-0.048614588,-0.13153541,-0.17054407,0.17350188,0.08641208
russfeingold,0.1963112,0.07552111,-0.35282007,-0.12312526,0.09945898,-0.0060931426,0.12447846,0.20421754,-0.073496565,-0.3065415,-0.032726027,-0.06788084,0.09765052,-0.027143458,-0.180349,0.2733564,0.08058993,-0.005178389,-0.16671641,-0.1184985,-0.065084435,0.007772088,0.04932997,-0.075915106,-0.013574415,0.19399597,0.061392322,-0.038190167,0.012083037,0.10467804,-0.21070041,0.054130495,-0.3123693,0.075900115,-0.0022506977,-0.117330626,-0.1023908,-0.0204527,0.122723036,0.15236793,0.04314574,-0.11313383,0.12906207,-0.1301348,-0.18037917,-0.09557879,0.07879236,0.15342312,0.07298469,-0.26982936
jaredpolis,0.067364305,-0.08745844,-0.280235,0.08093837,0.12540375,0.13918096,0.3304066,0.18548228,-0.09236618,-0.20051864,0.2399724,-0.027571717,-0.03084393,0.13474835,-0.23124458,0.16444333,-0.041724905,0.10383856,-0.06165912,0.074416645,0.0041912547,-0.12534294,-0.0005404868,-0.20758153,0.059586458,-0.09240673,-0.39002097,-0.055863842,0.06934583,0.12180285,-0.11956636,0.20848201,-0.23517132,-0.016741956,-0.04565994,0.14767593,0.03853348,0.12240548,0.07807783,-0.054276235,-0.057256922,0.06367287,0.091131635,-0.16206492,0.0034484144,0.035209265,-0.15506308,-0.12856661,-0.049892336,0.027016604
OrrinHatch,-0.0994515,-0.043906726,-0.06842608,-0.13592033,-0.1740847,-0.0040394296,0.074747,0.10156844,0.031779,-0.16800563,0.24288447,-0.14716817,0.23277694,0.18767793,-0.028781738,0.03815515,-0.087499075,0.07487858,-0.29197162,0.10389087,0.04155502,0.004228683,0.0061846403,0.09208765,-0.04525478,-0.1024728,0.17786735,-0.1797106,-0.11049672,-0.018240675,-0.30952004,-0.061183367,0.19326451,-0.10263576,-0.14330941,0.26107728,-0.2175675,-0.034791,-0.08323526,-0.07559564,0.2540923,-0.09157746,0.14798935,-0.25300783,-0.05828971,0.061317615,-0.10794997,-0.12616678,-0.05976918,-0.11894011
keithellison,0.08963394,-0.1586336,-0.14355268,-0.06265883,0.2518251,-0.2236328,0.1114852,0.1917735,0.10977151,-0.26845112,-0.103778385,-0.026287785,-0.027195448,0.07501168,0.14949276,0.04444207,0.06966166,0.2642064,-0.22405478,-0.034530148,0.1822511,-0.10428071,-0.029867308,-0.111297265,0.11551882,0.16518922,-0.010978229,0.053390134,0.18125556,0.12678991,-0.107351914,0.010273179,-0.17827664,-0.11055262,0.09227196,-0.16870564,0.068960674,0.16685724,0.10781889,0.031732637,-0.30733475,0.0678704,0.26806927,0.016509907,0.018182995,-0.13386686,0.10565697,0.15586062,0.0714428,-0.09783258
AlanGrayson,0.16949135,-0.1237786,-0.07057868,-0.052766543,-0.02277221,-0.007943231,0.08651522,0.21939608,0.06622283,-0.18945824,-0.11048992,0.11801834,0.19983844,-0.0059546484,0.022179473,0.21914919,0.112812966,0.31616735,-0.20084457,0.031106075,-0.0721985,-0.08668832,0.009549739,0.048620954,0.0927873,0.19828144,-0.112820745,0.338614,0.107666746,-0.08073517,-0.062389106,-0.06394318,-0.24555306,0.10954245,0.17125723,0.17187138,-0.06246442,0.07481555,-0.03257557,0.24170035,-0.13326962,-0.10093128,0.034267414,-0.17184569,-0.13369943,-0.11044222,0.15531832,0.18461096,0.06529716,-0.12311968
SenateDems,0.21211313,-0.012738011,-0.23027547,-0.09297514,0.026887372,0.18227449,0.1300127,0.06375248,0.27633134,-0.17229998,0.16449326,-0.057739053,0.13491173,-0.08083792,0.007919469,0.2653676,-0.19740364,-0.10627214,0.015828637,-0.24629158,0.042521082,0.06946127,-0.013031117,-0.1427958,0.2640226,0.051434092,0.060330477,0.20042288,0.3166637,0.037425224,-0.0062582353,-0.15107241,0.17832017,-0.21161723,0.06630946,0.09527424,-0.07279658,0.014552455,0.0969179,-0.0054396926,0.1421666,-0.19262615,0.001595761,-0.17570858,0.004232481,-0.14204988,-0.011930795,-0.047289636,0.08443521,0.06821051
JohnCornyn,0.09917762,-0.41046327,-0.12425358,-0.080319874,-0.10316236,0.048010353,0.17888442,-0.13360472,0.043465924,-0.0018454392,0.07981792,-0.16940424,-0.08268163,0.09019221,-0.013997408,0.12837002,-0.0913566,0.123023644,-0.093385756,-0.0008937634,-0.04099871,0.19959855,0.16183162,0.060015902,0.0041266982,0.13823551,0.08514314,-0.046623196,-0.1161195,0.140877,-0.09210975,-0.002738074,0.089802854,-0.34288463,-0.13348036,0.03580063,-0.11466581,-0.09365721,-0.41054663,-0.19868375,0.14758769,0.045792066,0.02606466,0.07499588,-0.07028308,-0.059243362,0.22409776,-0.088526875,0.080388725,-0.12913388
Dennis_Kucinich,0.17878564,-0.016978815,-0.085442215,-0.029211944,-0.020437995,-0.060481634,0.003237424,0.032268498,0.016362334,-0.1808336,0.025423039,0.018091645,0.22448772,0.14480205,-3.3233686e-05,-0.006544304,0.16470735,-0.0049324045,-0.38400286,-0.036995262,-0.16714577,-0.055870198,-0.19826922,-0.23198807,0.23099342,0.14520492,0.08370392,0.24080373,-0.028043326,-0.046086766,-0.20202322,0.19333746,-0.20205386,0.033352505,-0.08021463,0.19745636,-0.0066479114,-0.031778987,-0.08756379,-0.23367758,-0.12553522,-0.09805396,0.17423658,-0.15573844,-0.19955942,-0.21412954,0.048348542,0.035491798,0.030902304,0.08666082
MarkWarner,0.12654302,-0.19494256,-0.2605332,-0.13710287,0.11490778,-0.03389831,0.27271008,0.10368707,0.11681066,-0.005955377,0.3100872,-0.19500169,0.0567121,0.055224698,-0.2499516,-0.056886293,0.14501113,0.05683058,-0.05249563,0.0016996561,0.14366607,-0.025355779,0.074532025,-0.22901857,0.13198443,-0.06374069,-0.10293685,-0.14932764,0.074208535,-0.008672092,0.078332394,-0.07435939,0.019988868,-0.15918848,0.17827448,-0.1732389,-0.09771352,-0.08404712,0.25229335,-0.018847583,0.21928456,-0.033152677,0.096842684,-0.3042427,0.15036935,-0.09295967,-0.105507895,0.005770809,-0.014550266,0.012604448
jasoninthehouse,-0.17951079,0.027013952,0.027651817,-0.022425855,0.06767361,-0.32278717,0.21392444,-0.07112961,-0.16057807,-0.24460413,0.2577923,-0.2574124,-0.022610066,0.22254902,-0.12939966,0.015559557,-0.16612856,0.030032538,-0.1742082,0.1705037,0.20712836,-0.13516606,0.22233137,-0.06419685,-0.09918459,-0.015790598,0.12068437,0.0026857841,0.05264279,-0.14524825,-0.21747424,0.051512968,0.027161196,-0.1608277,0.047838524,0.20339082,-0.15825525,0.09761034,-0.19366004,-0.08520588,0.0859713,-0.09989057,-0.022983946,-0.12519029,-0.013570959,0.03396815,-0.095740266,-0.10678213,-0.08735559,-0.08366016
GOPWhip,-0.045407295,-0.0475658,0.020847315,-0.15866527,-0.15005422,0.05464893,0.10970172,-0.052761044,0.20253329,-0.042921703,0.23994404,0.034406237,0.19683328,0.15952544,-0.10675776,0.13667844,-0.1383935,0.14525776,-0.12431377,0.052187987,0.2724404,0.1629908,0.25316036,-0.095565215,-0.0048472593,-0.25225773,0.17362618,0.14971358,0.13496856,-0.10921816,-0.11688981,-0.019266274,0.21876375,-0.04525372,0.16190547,0.05817283,0.014660984,0.0006563026,-0.42007998,-0.12371579,-0.007848475,-0.024615072,0.07846597,0.07857576,0.1500205,0.033901114,-0.027079042,-0.052995138,0.17058972,-0.015133946
ConnieMackIV,-0.18503964,-0.15493563,0.13910548,0.045783494,-0.14446953,0.018201016,0.22042589,0.017447067,0.11381849,-0.16090158,0.08691104,-0.08123898,0.09088941,0.061144117,-0.108393714,0.3144288,-0.13942583,-0.0001695626,-0.22793767,0.09873931,0.041233446,-0.041493416,0.16979736,0.18837985,0.081463054,0.0063389265,0.25044003,-0.14241292,-0.06695732,0.100269005,-0.05828169,0.057489175,-0.01622724,0.20971748,0.07906217,0.02359077,0.19262123,0.09163689,-0.18072467,0.19917946,0.07010826,0.014165736,0.045481242,0.07785053,-0.13024777,0.3675296,-0.21070711,-0.12163923,0.14470036,0.022259919
SenBillNelson,0.17892961,-0.088015296,0.012822161,-0.01713368,-0.1906791,0.09180172,0.24003518,0.18899083,0.0843705,-0.26890114,0.16326073,-0.12326005,0.187733,-0.050341703,-0.08004567,0.18008277,-0.0507995,-0.018891595,-0.12928349,0.03763761,-0.19434875,0.055542935,0.045918245,0.015431936,0.24040271,0.051193185,0.08168653,-0.2563567,0.080723576,0.07895819,-0.057355084,-0.042508047,-0.20477584,0.07122407,-0.013927992,-0.012508053,0.17302506,0.0043194294,0.004261768,0.20252052,0.0044792346,0.09377846,-0.065508656,-0.05916461,-0.10812948,0.30497587,-0.08219029,0.13173714,0.30279246,-0.23108238
congressorg,-0.090641595,0.004937452,0.080021605,-0.06004273,0.025486164,0.105514035,0.3527798,-0.032077935,0.14220287,-0.14570624,0.20373468,0.10473979,0.2845625,-0.28801462,-0.11226989,0.12442498,0.03512144,-0.09511611,-0.09927483,-0.06632179,-0.040235873,0.22260794,-0.07643267,-0.17311585,0.22464134,-0.034565035,0.10796237,0.19313447,0.12347276,-0.17075798,-0.22169346,0.079023644,-0.0637109,-0.015583843,-0.11777454,0.2089216,-0.10226648,-0.036382068,-0.052125245,-0.19039267,0.090830795,-0.04360294,-0.041279744,-0.14207485,0.16198307,-0.027717808,0.080384076,-0.25440523,0.019572904,0.058538593
WhipHoyer,0.15093401,-0.09761104,-0.08173617,-0.2968058,0.055868536,0.23098558,0.17846785,0.07295391,0.178214,-0.16332503,0.06486767,-0.15216304,0.25346214,-0.10530613,0.06745938,0.1280594,-0.2552845,0.1482797,-0.047205288,-0.08429924,0.112344146,0.22001664,0.16452669,-0.12767348,0.22092442,0.010211827,-0.10888271,0.17664208,0.2109758,-0.13942364,-0.06268273,-0.13778235,0.055753924,-0.06995408,0.20341977,-0.013986927,0.09289543,0.23391916,0.018331068,-0.0064406726,-0.022461303,0.0022415104,0.062035557,-0.2568309,-0.013108235,-0.1508519,-0.052496333,-0.028527442,0.08569104,0.0017431987
USSenScottBrown,-0.23249906,-0.10206404,-0.13842079,-0.037091255,0.068473585,0.23616064,0.22920527,0.062203515,-0.05156869,0.20953387,-0.0071592676,-0.3414465,0.3313009,0.010673389,-0.09390012,0.16277003,-0.057284907,-0.04118097,-0.05507136,0.0119167,0.04326582,0.037098352,-0.0052968566,-0.028846107,-0.059024815,-0.16783622,-0.17895614,0.004515036,-0.09104357,-0.27412513,0.08832337,-0.00688524,-0.031655338,-0.20821445,0.1641539,-0.095169365,0.12728928,-0.020382663,-0.06512081,0.00215769,0.16060567,-0.12542912,-0.14723508,-0.061843973,-0.15571345,0.18400042,0.25634056,-0.037852075,-0.06563392,-0.15713985
SenSherrodBrown,0.334464,-0.14600165,0.08776372,0.05015433,-0.085650824,0.0254276,-0.15532152,0.041990377,0.05023306,-0.09954685,0.06771175,0.059278384,0.3400722,0.05013859,-0.08308645,0.008760031,-0.09835489,-0.028109163,-0.35065156,0.108678125,0.10849358,0.1101045,0.034139134,-0.30043465,0.19228289,0.11738409,0.013556101,0.084220216,0.08601501,0.23333421,0.15155485,-0.09814492,-0.038945317,-0.09210211,0.047037028,0.03746217,0.16307876,-0.035969794,-0.056447297,-0.1305975,0.0037738846,-0.27986765,-0.04762807,-0.13031918,-0.24447258,-0.09507568,0.13298112,0.0822894,-0.093685485,0.05150721
robportman,0.15868782,-0.080107145,0.11828827,-0.046554517,-0.077661626,0.047485404,-0.10025427,-0.078283034,-0.09856537,0.052433595,0.06436098,-0.051318184,0.25949433,0.08030977,-0.14712,-0.05170718,-0.07920553,0.01479147,-0.43087813,0.20897962,0.20571163,0.034199715,0.11956539,-0.1677851,-0.0057310234,-0.06439556,0.13637026,0.040148076,0.14756866,0.14522192,0.2027997,-0.080860615,0.12664595,-0.15298194,0.086210534,0.042045873,0.30960497,0.0014007917,-0.08004131,-0.113631986,0.01394569,-0.26682988,-0.09310976,0.040424626,-0.28105116,0.042420313,0.0740099,-0.14736907,-0.06715318,0.12548475
GrahamBlog,-0.024122389,-0.055163916,-0.07176347,-0.4016309,0.069064535,0.024606261,0.12917756,-0.0040207896,0.08026351,-0.03558958,0.10151468,-0.35231984,0.16845182,0.11822088,-0.1460345,0.101472914,-0.0740713,0.061350513,-0.33119458,0.10543599,0.13140565,0.1253989,0.10680046,0.117937945,0.1061194,-0.054142136,0.3701592,0.019998271,0.00071890693,-0.13569175,-0.06022346,-0.08599617,-0.08817244,-0.054538272,0.099472955,0.092547886,0.18005012,0.07109504,0.017007617,-0.050727315,0.22025287,0.036953304,-0.18486191,0.043359287,-0.13984795,0.060214795,0.05578843,-0.046356294,-0.08721578,-0.1754557
RoyBlunt,0.14094216,-0.25038683,-0.10293996,-0.26457125,-0.13183798,-0.01624646,0.0824875,0.028112935,0.0070086285,0.0791106,0.27951908,-0.21736686,0.140396,0.09958839,-0.1342286,0.067792684,0.053310413,0.023916105,-0.17388305,0.011450728,0.20218225,0.02097393,0.17259426,-0.05383911,-0.10468811,0.06884694,0.12620692,-0.09794394,0.21029612,0.022068499,0.16832808,0.20346558,-0.1403755,-0.34690243,0.1315754,0.007941993,0.022419702,-0.036964074,-0.0767931,-0.061910033,0.3619666,0.05504921,0.16489767,0.0020584727,0.11062541,0.054546036,0.09576449,-0.03971143,0.0062523214,-0.08922907
SenatorCollins,0.17991437,-0.20171455,-0.29554302,-0.2491982,-0.0053408765,0.268643,0.25240356,-0.03914376,-0.02381797,0.05514002,0.19192918,-0.27519822,0.34815994,0.11491444,-0.2678047,0.100622766,-0.019722426,0.20441672,-0.2116833,0.12239551,0.028523296,0.12125121,0.0059762574,-0.13839777,0.20381315,0.06350254,-0.09257971,-0.017048316,-0.033374723,-0.055988748,0.0558523,0.07885132,-0.11394289,-0.037618905,0.04817907,0.120120645,0.028349588,0.017220985,0.016555302,-0.10346082,0.09746715,0.017031359,-0.013076514,-0.035007354,-0.031436376,0.12954088,0.008500482,-0.03935736,-0.014664723,-0.17001949
SenatorBoxer,0.094730884,-0.07769748,-0.0615994,-0.0044987705,-0.015673619,0.21582654,0.084580675,0.10548035,0.0604802,0.05607614,0.08956503,0.06423635,0.3338813,0.08827377,0.05057161,0.21607704,-0.3102826,0.19927035,0.015197511,-0.0024187681,0.10312033,-0.0060062213,-0.07605495,-0.03316119,0.2262418,0.12770596,0.0014712955,0.090093374,-0.0041211178,-0.11258709,0.05117224,-0.25902173,-0.15924385,0.058405433,-0.12635167,-0.048049018,0.23554413,0.2483837,-0.057119437,-0.1619959,0.10272836,0.0049289563,-0.06431936,0.12716562,0.0096740015,-0.1972578,-0.23283282,0.24359646,-0.13704681,-0.14444414
kevinomccarthy,0.020685637,-0.14089273,-0.093223326,-0.07547292,-0.12887964,-0.010459498,0.13230558,-0.07469252,0.20067748,0.04177596,0.21765041,-0.14518341,0.2404282,0.12738681,-0.24172214,0.11394366,-0.04105328,0.22679855,-0.14125447,-0.011799917,0.3232544,0.0942061,0.29206437,-0.07012798,0.036220897,-0.1579588,0.14778845,0.06943258,0.15788832,-0.1303714,-0.16287678,0.086744666,0.18469119,-0.0054106615,0.08518065,-0.028075574,0.021519901,-0.051159807,-0.33098662,-0.11173653,-0.1065316,0.0076322663,0.16518576,0.06825719,0.16456039,0.020551898,0.020513194,-0.113961525,0.011020708,-0.11056965
SenChrisDodd,0.34136254,-0.06479632,-0.25223237,-0.23391216,-0.06812254,0.0971191,0.25457162,0.050957378,0.13175449,-0.0999475,0.22648457,-0.22385706,0.34877813,-0.07580345,-0.18057275,-0.036685374,0.017281653,0.10570284,-0.3066625,-0.056879357,-0.017407356,0.12928517,-0.042425107,-0.15254691,0.16203359,0.10848187,-0.086921625,0.0013908491,0.008673232,0.03939353,-0.17214587,0.026758846,-0.11337101,-0.11973145,0.0012243103,-0.013000822,-0.08911062,-0.10031632,0.126909,-0.0554663,0.06556155,-0.021813244,0.117783785,-0.20921871,0.033077996,-0.07529241,0.008872908,-0.053575456,-0.03384588,-0.15212595
MarkUdall,0.19831295,-0.025262812,-0.40338624,-0.031624153,0.14421228,0.17361265,0.2835354,0.16066158,-0.059009645,-0.12796125,0.291577,-0.11497243,0.09922736,0.1670448,-0.22135657,0.029652769,-0.05251737,0.17161743,-0.2128727,0.1825395,-0.098313995,-0.08471602,-0.050948072,-0.200775,0.14940402,-0.020773232,-0.2630468,-0.15529072,-0.024447575,0.08926157,-0.06880774,0.10639042,-0.15238707,-0.042309966,-0.031289037,0.111147314,0.015491204,0.03193584,0.1322923,-0.050089777,0.16677621,0.03352206,-0.0029327674,-0.057694003,0.014922882,0.03910918,-0.13038471,0.060844656,0.029226098,-0.083522305
DavidVitter,0.047628943,-0.2819989,-0.16944131,-0.26159948,-0.030139191,0.10881532,0.24702032,0.04022374,-0.017410122,0.0276951,0.087218985,-0.26883653,0.19030702,0.193661,-0.28619483,0.11328899,-0.032003433,0.18083958,-0.24235815,0.05734746,-0.046033986,0.11898055,0.08116596,-0.04622453,0.076636635,0.13678107,0.15098067,-0.15336718,-0.039495397,0.010286253,-0.12972978,0.06331283,-0.021036804,-0.0691979,0.11030443,0.1284276,-0.096602626,-0.18446171,-0.12661332,-0.072923206,0.15376604,-0.14226559,0.09077396,0.0015824159,0.055319306,0.22451645,0.12282045,-0.033136807,-0.030237619,-0.24661253
LuisGutierrez,0.14032076,-0.1969249,0.04042247,-0.049500383,0.3680388,0.1281381,0.20383361,0.19081788,-0.025301833,-0.14308506,-0.011660697,0.13672337,0.070458904,-0.09984523,0.19300938,0.10198006,-0.24477279,0.04936186,-0.22018515,0.04692856,0.04520738,0.17446698,-0.0190062,-0.14417303,0.22482815,-0.0095607415,-0.21673836,-0.009873437,-0.3108583,-0.014468957,0.012439619,-0.053676996,-0.016411446,-0.110650405,-0.09610034,0.119841516,0.15763152,0.17599954,-0.013088407,-0.043905806,-0.120272,0.18426436,0.11743408,-0.022679213,-0.014818608,0.18110101,-0.20215338,-0.073782735,0.055842914,-0.040375262
RepTomPrice,-0.00048451166,-0.22579196,-0.12970893,-0.23118457,-0.0051045585,-0.023104694,0.21686593,0.015792718,0.13923533,0.09388917,0.058874927,-0.17813672,0.14948724,0.092283666,-0.25779697,0.020707192,-0.068376504,0.09162218,-0.3006197,-0.017807584,0.1133399,-0.041097943,0.3185188,-0.11480612,0.08570071,-0.031985417,0.05147283,-0.092616916,0.16805084,-0.07831562,-0.12966031,0.2575967,0.17186257,0.0144052375,0.07116374,-0.011395921,-0.033730514,-0.11129294,-0.25563914,-0.06869104,0.064877965,-0.11187686,0.24930999,0.08630942,0.20067564,0.10466386,0.009152383,-0.13326962,0.16014953,0.0104511
johnculberson,0.18157728,-0.30552182,-0.103024304,0.073750004,0.013703302,-0.069154315,0.25201875,-0.054828584,-0.038985714,-0.0012725083,0.114711724,-0.23648587,0.08825395,0.117302574,-0.13253872,0.009577504,0.13583148,0.15483314,-0.16432367,-0.03321865,0.20462671,0.040596575,0.15364605,-0.10741244,-0.056055885,0.02632726,0.019940162,-0.14310496,0.03951231,0.07838561,-0.22053102,0.2121807,-0.011973416,-0.11862169,-0.05013641,0.05046515,-0.1463502,-0.223969,-0.23910284,-0.24321312,0.047984652,-0.016986711,0.327688,-0.009177329,0.11202203,0.006110152,0.19048165,-0.12368998,-0.053847596,-0.12947285
RepKarenBass,-0.00880755,-0.076529674,-0.010092354,0.007831659,0.32397702,0.044915885,0.17117694,0.17648613,0.12735371,-0.15334262,0.020227158,0.048919946,0.09937915,0.07981269,0.12660119,0.16235131,-0.3951054,0.16659442,-0.10997871,-0.0013806355,0.1957742,0.10853872,0.044773594,-0.20305367,0.30042964,-0.04324455,-0.11701206,0.027937954,-0.121794656,0.007190954,0.028421953,-0.027792891,-0.062293097,-0.034089033,-0.19214956,-0.019669168,0.08444464,0.2753236,0.027591974,-0.19251052,-0.10668936,0.15400666,0.15336727,0.0016829934,0.104885675,-0.07003034,-0.21064058,0.038917094,-0.020403348,-0.17029779
SenatorBurr,0.050418656,-0.19348133,-0.033742245,-0.17449056,0.15122548,0.03683273,0.2515079,-0.05314552,-0.09007084,0.1549022,0.13775265,-0.2142513,0.08612449,0.15762559,-0.26921418,0.07865863,-0.06148471,0.08667768,-0.15525259,-0.017693512,0.081337735,0.20051636,-0.116055995,-0.12237523,-0.018221693,-0.026420241,0.10189876,-0.14944103,0.020118492,-0.04113489,0.27905673,-0.018508796,0.076262526,-0.16496459,0.0483903,0.15672234,0.13219365,-0.114679664,0.03919616,-0.2445618,0.31172723,-0.0927572,-0.040321864,0.009843182,0.02007687,0.1969201,-0.17092112,0.06223006,0.06817746,-0.26241162
MaxineWaters,0.087044075,-0.116666324,0.06476145,-0.14388458,0.20553876,0.0748509,0.118881345,0.12320197,0.21798967,-0.17566334,-0.04219656,0.09259295,0.12968509,-0.04976981,0.24784747,0.096142285,-0.30727312,0.24000789,-0.29272205,-0.06390151,0.026344119,-0.03638878,0.08642264,-0.15227595,0.30530524,0.046570864,-0.032118473,0.14563355,-0.14496383,-0.01697717,-0.17172028,-0.07379117,-0.09840284,-0.101942204,-0.16624859,-0.011285739,0.08409029,0.2793713,0.06485506,-0.09550396,-0.11303216,0.14227776,0.20457552,-0.011304797,0.08119831,-0.057548705,-0.048885714,0.09796514,-0.07863438,-0.019336127
BruceBraley,0.016393006,-0.1779293,-0.14823623,0.048268255,0.23417592,-0.11862051,0.2104264,0.14408377,0.20653409,-0.14615472,0.052020226,-0.17849201,0.14070795,0.26143357,0.027634414,0.26200092,-0.3731093,0.057224236,-0.049336817,0.029854096,0.19990559,0.24005693,-0.045246337,-0.2447462,0.12702937,-0.07537579,-0.10785479,-0.0018054186,-0.01867139,0.04961899,0.016644048,0.06685044,-0.011986012,-0.06914393,-0.16589686,0.031126605,-0.13550523,0.23553576,0.063911796,-0.042904492,0.018822005,0.07871915,0.18119988,-0.059281606,0.04461613,-0.12905036,-0.12806685,0.020192653,0.011094514,-0.12517734
SenJeffMerkley,0.25245047,-0.14762048,-0.27140182,-0.1511792,0.069886394,0.1378061,0.21864775,0.18735376,-0.14760056,-0.0021324884,0.23806782,-0.05084199,0.14865364,0.18911803,-0.060033318,0.100623704,-0.0843341,0.13117099,-0.19189128,0.1103499,-0.05414485,0.034388177,-0.19581139,-0.1942659,0.24750093,0.10078174,-0.19108424,0.02271328,0.015328956,0.111092515,-0.044255186,0.10757315,-0.12869434,-0.018183926,0.07731032,0.10842015,0.036999147,-0.054499395,0.17510155,-0.15173024,0.2228929,-0.066632465,0.059082754,-0.032177415,-0.06600917,-0.012218363,-0.09305834,0.16556098,0.06441738,-0.2728601
kaybaileyhutch,0.09012649,-0.353948,-0.06278407,-0.1416628,-0.07138812,0.12568703,0.16357234,-0.11349374,-0.0185226,0.13924704,0.16752216,-0.15988724,0.013343507,0.048792265,-0.018248191,0.23729505,-0.15655366,0.067006774,-0.13530658,0.00014392802,-0.08654295,0.23935448,0.047616098,0.0052689924,0.06987423,0.11407969,0.089496195,-0.13303897,-0.11725545,0.09089432,0.1060541,0.0071498966,0.103191555,-0.22789223,-0.16297656,0.10408087,0.04889983,-0.046248797,-0.30696526,-0.31268552,0.24652249,0.10292877,-0.061829403,0.063850224,-0.05788656,-0.047191206,0.14706501,0.02403118,0.1964523,-0.12667905
repjohnlewis,-0.05894931,-0.23301592,0.16242282,-0.1244229,0.27595773,-0.042368487,0.14985971,0.24940856,0.19032744,-0.11054016,0.07346502,-0.04848666,0.16712986,-0.2016731,0.07498911,0.05494713,-0.19117543,0.1513587,-0.22250901,-0.04925104,0.03353481,-0.07198876,0.01079036,-0.21216589,0.18106553,0.02004819,-0.2037581,0.1474229,-0.095237255,0.10575652,0.049685087,0.07245024,-0.09121998,-0.1989175,-0.16917829,-0.14845952,0.09962557,0.2378917,0.04403647,0.12996025,-0.05794124,0.16557194,0.12329935,-0.047333375,0.0042790896,-0.20327735,-0.11430902,0.12597543,0.1201145,-0.016146634
SenMikeLee,-0.24553315,-0.09777498,-0.092616275,-0.24378341,-0.01961464,-0.06471047,0.06051072,-0.02710216,-0.27082172,0.007358338,0.15008688,-0.2591129,0.10256941,0.29885972,-0.039009783,0.15796171,-0.14288764,-0.062457398,-0.18780497,0.13990073,-0.001520888,-0.07291217,0.1332319,-0.02153391,0.0844861,-0.031665873,0.217619,-0.0055002333,0.034165133,-0.1004866,-0.17006023,0.15642534,0.08478278,-0.033647057,-0.060485605,0.23986368,-0.10805027,0.06348977,-0.2211943,-0.120554,0.31164926,-0.19560203,-0.02911589,0.05956767,-0.12817487,0.021923918,-0.11553648,-0.10415929,-0.102263406,-0.029986408
JeffFlake,-0.07648967,-0.07237252,-0.08776055,-0.09833031,-0.035665497,-0.040565986,0.32252425,-0.07544134,-0.18286042,0.032897748,0.21169138,-0.33146402,0.26044482,0.14071313,-0.11944157,-0.048170786,0.049503442,0.1774287,-0.14152686,0.04041514,0.103392474,-0.056055833,0.25831798,-0.11413609,-0.0032379827,0.15836537,0.14642133,-0.014558043,0.1644187,0.0037708837,-0.032652613,0.22969714,0.09970069,0.12638156,0.091835864,0.03732247,-0.011569611,0.034287155,-0.2262692,-0.17793232,0.055477697,0.0631808,0.23421851,0.09955558,-0.05405337,0.012861254,0.10987792,-0.2212979,0.12618919,-0.12995727
lisamurkowski,0.17671311,-0.19705364,-0.24296771,-0.29165363,-0.012637984,0.241004,0.2165268,0.0028380388,-0.010038579,0.04850688,0.20784616,-0.2656906,0.35684842,0.13216653,-0.24945131,0.16210148,-0.10761283,0.21443479,-0.23795575,0.15010718,0.04756327,0.08061013,0.025773652,-0.081305966,0.19796863,0.119314246,0.040336285,-0.02426267,0.0074689197,-0.02388457,0.050764374,0.029280301,-0.076129764,-0.03211814,0.0053370963,0.076222256,0.100389354,-0.04468332,-0.0034654418,-0.10270401,0.13574629,-0.017514467,0.008391474,-0.044500574,-0.071169004,0.0711908,0.063960485,0.0443685,0.053528,-0.20870067
Clyburn,0.053195767,-0.111597694,0.06735302,-0.28184983,0.18338296,0.030855328,0.0726411,0.057755418,0.25799254,-0.25758827,0.07121801,-0.10040277,0.2782086,-0.067745306,0.17929344,0.15652798,-0.24653676,0.19219579,-0.24310504,-0.11973659,0.17244852,-0.028892618,0.15858509,-0.13361153,0.22037858,0.054497574,-0.11043077,0.20283434,0.065672286,-0.112768196,0.01412644,-0.08325976,-0.012753433,-0.13821533,0.018907296,-0.020883847,0.05418474,0.30698097,0.11130436,-0.016213343,-0.05344606,0.098557055,0.047402754,-0.16439049,-0.030794334,-0.12777986,0.02562528,0.06889581,-0.0029959884,-0.051629465
SenatorSessions,-0.0084579885,-0.12760133,-0.15184517,-0.31452134,0.041292436,0.08156566,0.028473446,-0.03712917,0.034305952,0.17403851,0.16623405,-0.22540992,0.24551801,0.26396546,-0.07863538,0.15010978,-0.18127696,0.067428306,-0.2526862,0.015859948,-0.08811487,0.10304906,0.06920103,0.07537442,0.08225396,0.10570619,0.26366532,0.012434605,-0.03802155,0.108506195,0.09077603,-0.030360542,0.07156014,-0.06369983,0.026403597,0.20150656,0.10332998,0.062158357,-0.1523632,-0.16246407,0.24083328,-0.10957558,0.026323374,0.20186801,-0.0015098725,0.27131826,0.056267135,-0.0048078275,0.026004577,-0.19650666
jiminhofe,0.03661497,-0.21592352,-0.2546795,-0.22665058,0.054889202,0.060000096,0.15578178,-0.094101965,-0.031515285,0.040014453,0.16142617,-0.25275007,0.18978515,0.30955544,-0.18987858,-0.106690384,0.08425793,0.19619146,-0.1833134,0.09558388,0.080481626,0.011005379,0.058218013,0.010513308,0.1862034,0.18637834,0.16431203,-0.077818185,0.011323847,0.091796115,-0.19599994,0.108589,-0.094077945,-0.15514855,0.032332115,0.042186495,0.06897175,-0.09749443,-0.10441745,-0.03256136,0.17186078,-0.044413637,0.21121982,0.22520547,0.04051423,0.16774379,0.116561726,0.00085092796,-0.039947875,-0.17556943
SenatorKirk,0.080809884,-0.17221962,-0.08733601,-0.22141439,0.216158,-0.032926057,0.092391826,0.073501356,0.007377455,0.12166958,0.12323413,-0.015335807,0.24826701,0.073348075,-0.05768325,0.3323686,-0.09752156,-0.057657298,-0.16721484,0.22407289,0.009960628,0.22713925,0.056712218,-0.05954604,0.09714431,-0.07341562,-0.13086712,0.044830274,-0.10324322,-0.16254914,0.17791128,0.05863545,0.028336652,-0.056393042,0.24870497,0.25553137,0.1838993,0.08885784,-0.11494707,0.07503373,0.15706207,0.08653363,0.13876836,0.044266116,-0.119927585,0.21650791,-0.09389242,-0.12774798,0.20291333,-0.07806944
repaaronschock,0.003601941,-0.19978666,0.004407962,-0.1392179,0.10975798,0.008604189,0.27694023,-0.023188837,-0.024330296,0.07424504,0.15035148,-0.19083498,0.17640099,-0.051148172,-0.21508217,0.23735133,0.0074096792,0.03408585,-0.16573463,0.10835854,0.22123517,0.15201509,0.22210728,-0.09030869,-0.010152326,-0.16188574,-0.13589983,-0.052580953,0.0757724,-0.25178713,0.10774901,0.2169793,-0.030421073,0.021764435,0.25453073,0.10429547,0.1895164,0.09084746,-0.11624482,-0.0034239213,0.025058446,0.10123523,0.16957963,0.004449114,0.021256307,0.2025584,-0.01852872,-0.23769496,0.17679225,0.0230381
RosLehtinen,0.12575383,-0.16956925,0.10037683,-0.026191648,0.022300737,0.1312742,0.28331786,0.010070748,0.040793564,-0.20573187,0.20169145,-0.1806644,0.113638714,-0.014520552,-0.12771195,0.124123596,-0.086502865,0.06264422,-0.16353908,0.07789195,0.07794144,0.08947072,0.20497644,-0.051257722,0.1268849,-0.042029053,0.04910615,-0.26884443,-0.008964601,-0.09523009,0.018686246,0.11144179,-0.09181112,0.060678225,-0.0905565,0.033534627,0.2441417,0.16043594,-0.15313105,0.038223576,-0.060749747,0.20344451,0.055511344,0.12837808,0.051452387,0.36476323,-0.13399118,-0.06394558,0.31391877,-0.11993414
SenatorBarb,0.19146746,-0.19318576,-0.109243184,-0.3663117,0.086684816,0.18827578,0.16844966,0.18326338,-0.026876329,0.02238786,0.13179836,-0.16287829,0.25909272,0.11923706,0.07947766,-0.013269254,-0.3205906,0.06598086,-0.0434757,0.028115626,0.13135515,0.051611442,-0.1032117,-0.09697579,0.13959086,0.022796968,-0.19317621,0.049529366,-0.057183493,-0.012218196,0.16538626,-0.18468738,-0.120919,-0.114709035,0.040733326,0.03157076,0.18226278,0.1596277,0.08314235,0.014707213,0.16202973,0.094431266,-0.039310157,-0.118535355,0.0029797808,-0.16480482,-0.20764372,0.1335215,0.08167682,-0.16048314
petehoekstra,0.063597076,-0.20015292,-0.11420387,-0.1795128,0.016561516,-0.082108304,0.29219273,-0.06625386,-0.1495507,-0.016544953,0.19369197,-0.2600912,0.16717699,0.086964145,-0.08845396,-0.04288464,0.12575302,0.16228184,-0.18337333,-0.008399792,0.28971282,-0.041282635,0.0987239,-0.1688289,-0.11684138,0.058694825,-0.046969153,-0.07197521,0.13110356,0.037288476,-0.22117051,0.25633648,-0.05101186,-0.039135292,0.051736314,0.088770375,-0.03844003,-0.10500716,-0.14098342,-0.14267421,0.007228858,-0.10573384,0.2656753,0.07184972,0.1363047,0.061091013,0.24582823,-0.089068465,-0.052150413,-0.18880512
SteveKingIA,-0.011679308,-0.17359635,-0.20758247,-0.1996057,-0.02729308,-0.17997535,0.18228507,-0.038550794,0.13738243,0.027448852,0.040480442,-0.36851498,0.16090047,0.25421515,-0.14338084,0.19358069,-0.1297508,0.121659055,-0.18176498,0.009660251,-0.034680154,0.027552577,0.12673542,-0.0028593803,-0.0822109,0.0135907335,0.30848366,0.04280334,0.13759843,-0.024547651,-0.122181565,0.22859609,0.014880775,-0.057866007,0.034743745,0.08577314,-0.14388947,0.0884863,-0.22921975,0.058136612,0.03980329,-0.09349983,0.22655068,0.2226145,0.16212204,-0.043062057,0.061122894,0.012892768,0.004880748,0.003006639
cathymcmorris,0.082860276,-0.14400145,-0.049641356,-0.14002667,-0.0054726815,-0.042487435,0.26972765,-0.074476846,-0.049707927,-0.036021456,0.28368494,-0.26615077,0.18183751,0.14490382,-0.24552992,0.06996771,-0.060288027,0.13314648,-0.09723967,-0.043307368,0.21404202,0.043682393,0.24543382,-0.15961336,-0.06421722,-0.12797722,0.06413323,-0.15610704,0.20081514,-0.05660176,-0.06457106,0.18202215,0.111124195,-0.034935176,0.05576638,0.047894433,-0.038596407,-0.0963597,-0.16598274,-0.16400464,0.1371714,-0.12460628,0.23410647,0.031747364,0.17421557,0.14218043,0.008931486,-0.18354896,0.14367189,-0.14349411
repblumenauer,0.21403886,-0.16898501,-0.14556547,-0.04470398,0.13729881,0.09674778,0.26270804,0.17871408,-0.12919003,-0.07986484,0.19002117,0.0051663495,0.11809366,0.1375349,-0.05136573,0.10513294,-0.06752149,0.16275871,-0.18208799,0.07494935,0.054155447,0.02740729,-0.094755895,-0.28258574,0.19319956,0.040055763,-0.35168964,0.05855372,-0.012506697,0.123270474,-0.07691049,0.2586615,-0.16619506,-0.0007251421,0.04664662,0.07372486,-0.013430475,-0.035153117,0.16948965,-0.18287402,0.07080659,0.026090238,0.1950268,-0.11214531,0.030210774,-0.009362428,-0.05344772,0.040232055,0.07836194,-0.29021156
VernBuchanan,-0.020214211,-0.03651935,0.10024322,0.0435397,-0.14020902,0.0006823589,0.26688725,0.050699364,0.09312237,-0.13159996,0.16334942,-0.13917877,-0.025366146,0.1571509,-0.09000117,0.14077194,-0.10316121,0.04046787,-0.1822196,-0.035939567,0.031950526,-0.0082017025,0.13184264,0.11689566,0.08284211,-0.069181584,0.2600472,-0.17520665,0.06822818,-0.03981299,-0.06054317,0.09519822,0.033423655,0.10539154,-0.07687433,0.14896284,0.11931958,0.052400835,-0.26088166,-0.015099899,0.100129716,0.061381485,0.081208035,0.21122374,-0.007997869,0.4489554,-0.23889203,0.017235609,0.32566437,-0.06369804
Jim_Jordan,0.24834335,-0.140924,0.069245525,0.045434285,-0.04398484,0.005600092,0.05810826,-0.076796636,-0.0969789,0.04870259,0.04373474,-0.055020653,0.24754575,0.12465191,-0.19480556,-0.094457686,0.08879469,0.057744507,-0.3655849,0.06541823,0.2726945,0.059662066,0.2055161,-0.23719004,0.030418936,-0.036310185,0.09428041,-0.06859503,0.23694555,0.12102834,-0.009479141,0.095051356,0.12971474,-0.076324046,0.07371273,0.09940486,0.104023576,-0.097560436,-0.16840133,-0.27392608,0.0067359745,-0.258422,0.24085951,0.060563203,-0.15257126,0.037404966,0.036110785,-0.12954153,-0.06889435,0.030369844
pedropierluisi,0.08898655,-0.14788522,0.030130932,-0.058657043,0.33130988,0.12205831,0.22858208,0.16082922,-0.02489749,-0.1205002,0.10123806,0.023393024,0.11718202,-0.014495122,0.056690656,0.073637664,-0.2641719,0.09588676,-0.21737862,-0.012199444,0.09807711,0.10083285,-0.0032681823,-0.24183013,0.300762,-0.04253143,-0.21604092,-0.11542841,-0.20900185,0.061734624,0.04588641,0.009407023,-0.028985713,-0.10790573,-0.14379418,0.10016812,0.18509886,0.1735117,0.09575777,-0.19620977,-0.09934362,0.2012465,0.088433966,-0.013840236,0.075061925,0.12760514,-0.19796532,-0.06741771,0.13287753,-0.10504323
SenJonKyl,-0.025775177,-0.11397572,-0.11488956,-0.2655656,-0.016301764,0.17627989,0.18261535,-0.06246929,-0.0009572359,0.15472971,0.24084602,-0.32153538,0.3078275,0.13760453,-0.098072596,0.10882076,-0.13677777,0.15655406,-0.28368008,0.06540171,-0.05694191,0.11717777,0.088041104,0.0061667967,0.103007905,0.16559434,0.23775327,0.03520484,0.04447029,0.022644542,0.09733188,-0.004601661,0.10931438,0.0071421196,0.04978069,0.15626298,0.15402856,0.060612477,-0.10902008,-0.18652913,0.1306894,0.006952376,0.078889474,0.14543383,-0.07531263,0.07686869,0.13292725,-0.08988693,0.10587532,-0.2168209
SenatorCardin,0.19612975,-0.15937775,-0.17349476,-0.3715996,0.1836456,0.18770687,0.15589844,0.12745756,0.0025445751,0.003516324,0.15880626,-0.14957178,0.27140707,0.13440244,0.06992753,0.015290011,-0.3067181,0.078084834,-0.12776095,0.054297533,0.08989878,0.053925592,-0.09304917,-0.12625292,0.24244042,0.014656235,-0.16800357,0.02980735,-0.06221214,0.012851428,0.14215262,-0.12405323,-0.051064845,-0.101088256,0.031479705,0.08060888,0.18030995,0.12954511,0.1039609,-0.07135564,0.16365775,0.061861787,-0.015041113,-0.089943156,0.00949392,-0.08679677,-0.20827003,0.10128227,0.11697685,-0.17840801
cbrangel,0.119676046,-0.11031833,-0.1538544,-0.28136632,0.2000435,0.036922358,0.23544899,0.06485193,0.20112443,-0.34383968,0.14811331,-0.02609065,0.22884834,-0.009273132,0.039063856,0.05721573,-0.17770486,0.18115862,-0.30209172,0.0065644598,-0.059509337,-0.08918881,0.13047735,-0.107014745,0.24551642,-0.03646587,-0.17168143,0.08493663,-0.060700428,0.060447898,-0.07399744,-0.1143538,-0.124690376,-0.1471848,-0.09313466,0.036894582,0.07964862,0.21501455,0.07893902,-0.16831648,-0.17876907,0.077650286,0.13546534,-0.093468204,0.0198231,-0.0532481,-0.07816469,-0.020748543,-0.015030372,-0.042208392
neilabercrombie,0.28151473,-0.23184802,-0.14561467,0.0037467142,0.08057141,0.005312606,0.28332737,0.06150654,-0.10414692,-0.117322385,0.23577471,-0.10091722,0.22329374,0.10872069,-0.1347829,0.09043379,-0.05859994,0.13231473,-0.17459168,0.029389268,0.19074143,0.034092143,0.009341107,-0.2657434,0.14392331,0.03628692,-0.2040271,-0.08003701,0.04148111,0.050612547,-0.0905774,0.22275013,-0.12553747,-0.05149962,-0.079812706,0.082187556,-0.105158664,-0.09399269,0.12330784,-0.18445168,0.0133283725,0.028773317,0.22482097,-0.10616462,0.13556011,0.011257307,-0.068000734,-0.022155503,0.06934745,-0.3036105
repjustinamash,-0.26378292,-0.08286839,-0.12397808,-0.13644789,0.05235861,-0.073628046,0.16865833,0.04745181,-0.19104862,0.10574581,0.18037885,-0.081225775,-0.01275421,0.37756187,0.12746793,0.15625383,0.09436293,-0.1998341,-0.170867,-0.010191909,-0.10801086,-0.09756322,-0.0054408223,-0.22109547,0.08018958,-0.014763194,0.08862066,0.11068979,0.12858312,-0.080581754,-0.101786435,0.3128392,0.071054064,0.15263535,-0.064160705,0.15746823,0.056159735,0.09832378,-0.27818403,-0.22284368,0.11921416,-0.0484962,0.019427354,0.10456026,-0.09868279,-0.018011797,-0.12998816,0.053649124,0.016647289,0.13837443
SenBobCorker,0.05384607,-0.11758468,-0.13387899,-0.3157155,0.10736653,0.13991886,0.06769599,-0.058683746,-0.051548135,0.15552543,0.12147975,-0.12700011,0.2018701,0.2570568,-0.26545686,0.11288449,-0.0980942,0.11203378,-0.2764149,0.12965018,-0.08453483,0.14286438,0.009637131,-0.11743054,0.2241797,0.03387201,0.15155226,-0.10074434,-0.057952978,0.06490647,0.17066213,0.00013194483,0.021348234,-0.12236974,0.021693112,0.12898707,0.24495557,0.04127766,0.023573818,-0.10764858,0.26611796,-0.016531808,-0.033915624,0.10820168,-0.10154079,0.199055,0.013685197,-0.037204288,0.12850502,-0.2058348
GOPoversight,-0.08753519,0.119130135,0.022806166,-0.22790512,0.09751322,-0.018021982,0.2681596,0.06703163,0.015354578,-0.0590383,0.25980318,-0.011700423,-0.0052940543,0.17518753,0.062485725,0.045147486,-0.19446847,-0.03205768,-0.11570883,-0.1233312,0.16135736,0.057874747,0.1507948,-0.022988437,0.06084636,-0.14874536,0.26279873,0.03367531,0.32372782,-0.16547167,-0.16793592,0.067592464,0.10897844,-0.1125475,-0.06336561,0.24568641,0.005719972,0.039319377,-0.26647776,-0.10612436,0.19417614,0.00035330668,-0.021314615,0.24153769,0.09028315,0.20603697,-0.035607055,-0.03624378,0.15826206,-0.053429734
RepDaveCamp,0.023798533,-0.12948327,0.011738372,-0.21897462,0.10885167,-0.0056797354,0.22545978,-0.051007975,-0.04418043,-0.04147897,0.25254464,-0.107227385,0.218262,0.15099756,-0.12099299,0.09353382,-0.07810009,0.044700373,-0.18892556,-0.04036461,0.27641594,0.08407963,0.11298288,-0.2116774,0.016168853,-0.0957394,-0.11207141,-0.139723,0.15843332,0.019680431,-0.17930384,0.1843518,0.09456883,-0.06637481,0.030650528,0.14559346,-0.021514373,-0.12889297,-0.13346969,-0.22649638,0.13076594,-0.13210745,0.28788874,0.046966523,0.17340441,0.17869873,0.085216224,-0.09726293,0.0772162,-0.22558159
LorettaSanchez,0.0372034,-0.12563218,-0.04573699,-0.048840262,0.30209053,0.106963664,0.18897656,0.122187674,0.08653964,-0.20141414,0.075762704,0.020468233,0.17731482,0.10399152,0.08539001,0.18757252,-0.37679663,0.1488153,-0.10220592,0.013325741,0.1720171,0.12742412,0.016416159,-0.22050618,0.30819198,-0.013447837,-0.20764844,0.014354631,-0.089058,0.008882139,0.046451274,-0.02711214,-0.05615362,-0.04015755,-0.16973072,0.03645004,0.07106542,0.21291608,0.029849414,-0.1965572,-0.071591936,0.17063816,0.16005723,-0.027397025,0.09216905,-0.07610948,-0.19298193,0.014474603,0.024853256,-0.17155786
ArturDavis,-0.124632016,-0.031711053,0.004955062,-0.15577222,0.16252232,-0.23833264,0.118223414,-0.017723985,-0.0035735408,-0.12982138,0.09226546,-0.23909077,0.049688,0.116764024,0.15302403,-0.010354492,-0.20300376,0.11751003,-0.13506235,0.024412645,0.0244927,-0.15847172,0.18181922,-0.0015737645,-0.12731119,0.00073065603,0.20832346,0.030970966,0.074559666,0.048562128,0.08301864,0.08619526,-0.08819369,-0.18723235,0.07333815,0.030882562,0.2815841,0.21344243,-0.3103485,0.0548729,0.18701032,-0.0771002,-0.10715125,0.06482164,0.08270409,0.40785715,-0.03057801,-0.09763191,-0.02736866,-0.09855749
JohnBoozman,0.14529826,-0.1742188,-0.15666993,-0.23954563,0.15675524,0.11533559,0.14853542,-0.037476894,-0.07818611,0.06980601,0.16858993,-0.25831762,0.23156895,0.20337984,-0.23859198,-0.014168466,-0.021591717,0.14606138,-0.2501365,0.08577692,0.056177814,0.08616023,0.10782849,-0.11035377,0.14324015,0.012806158,0.06639784,-0.22203942,0.0156006375,0.007547581,0.05298225,0.17437544,-0.08558155,-0.08630996,-0.0035123727,0.11132353,0.15780155,-0.00781213,0.00101645,-0.23432991,0.21298866,0.022307355,0.19260478,0.12298582,0.05462259,0.19761238,0.033226255,0.0031689666,0.17016393,-0.18909948
RonWyden,0.104610056,-0.10924491,-0.23830037,-0.12819263,0.083621256,0.11509911,0.16789944,0.23634535,-0.20731995,0.043003883,0.21784057,-0.035422593,0.098612875,0.30896893,0.025620287,0.1705291,-0.11032961,0.046576407,-0.18864843,0.15093005,-0.019512761,-0.0012753132,-0.2282583,-0.19682863,0.21220574,0.066134214,-0.22886388,0.09236769,0.04268336,0.07759956,0.008740587,0.1169315,-0.12843406,0.03404605,0.083872475,0.115594395,0.09188472,0.020901427,0.10033811,-0.1920547,0.24067177,-0.051283617,0.02156751,-0.036826488,-0.15935999,-0.09386988,-0.11886296,0.15766722,0.03592732,-0.21109629
RepAndrews,0.09017635,-0.027705433,-0.022879994,-0.16696255,0.1494116,-0.06852177,0.23304093,0.25938556,0.12008392,-0.41847208,-9.200593e-05,0.053963125,0.04588522,0.017999345,0.17994572,0.34741715,-0.17123388,0.19151664,-0.13625358,0.056547068,-0.07743573,0.00238004,-0.15582763,-0.08461606,0.10002942,0.16047728,-0.16855195,0.23126873,0.091135114,-0.030943697,0.0020368884,-0.08698191,-0.01116774,0.00894759,-0.024546297,0.17443486,0.018090803,0.16626905,0.022601826,-0.05782334,0.03294207,-0.13440958,0.082081065,-0.21556528,-0.051733408,-0.12616728,-0.14566377,0.16352388,-0.027785262,-0.060799297
HealthCaucus,0.2263553,-0.2230285,-0.07391104,-0.10053509,0.09628256,0.05255497,0.27211514,0.0028866646,0.04990403,-0.076148205,0.22027642,-0.077217646,0.27065516,0.11396288,-0.179203,0.1398844,-0.090051755,0.051804055,-0.15799208,-0.022990819,0.20241411,0.1540307,0.10281998,-0.2528855,0.20982197,0.025848083,-0.121496305,-0.07428892,0.1759758,-0.020806417,-0.11463138,0.20707446,-0.019279258,-0.04311903,-0.049249083,0.10664573,-0.049532086,-0.09942669,0.0022117605,-0.19026834,0.10750389,0.009219989,0.24438019,-0.049126677,0.1553609,0.10021119,-0.040337846,-0.136272,0.18250234,-0.20672211
MaryBonoMack,0.039969325,-0.13033758,0.051209986,-0.051193573,-0.01995059,0.027060889,0.33718047,-0.099813044,-0.00998683,0.060632903,0.24683031,-0.19325852,0.19695273,0.04350284,-0.26904857,0.16792852,-0.15975788,0.18704966,-0.24212949,0.021123385,0.09239494,-0.012666872,0.20697601,-0.08718204,0.098832674,-0.1319528,0.13074903,-0.10552771,0.07241669,-0.14539737,0.010558999,0.20340917,0.016958015,0.13542451,-0.018418895,0.047856495,0.15580913,0.0055066985,-0.1670543,-0.18590833,0.013768452,0.0147589715,0.20187396,0.09424937,0.1954911,0.19927743,-0.08600648,-0.123146616,0.14132929,-0.16590534
SenatorHagan,0.13342199,-0.20002753,-0.039781902,-0.19678389,0.13020815,0.053275928,0.24391791,0.04778866,-0.055406086,0.06964571,0.21384685,-0.19909029,0.19201937,0.10423501,-0.11476018,0.1240452,-0.21385565,0.003148845,-0.07395321,-0.029650725,0.103868425,0.13974369,-0.18620716,-0.21399935,0.14238155,0.039967805,-0.053992,-0.055892356,0.026571644,-0.086615495,0.2876438,-0.017752824,-0.017392585,-0.15305942,-0.037874132,0.14904079,0.10002218,0.041849796,0.15564221,-0.17973936,0.28704807,0.030792698,-0.11296439,-0.022249931,-0.0480041,-0.03263176,-0.24402328,0.16220021,0.15983507,-0.2040601
SenBenNelson,0.19021209,-0.14888026,-0.30671898,-0.30166838,-0.0097490465,0.16402407,0.25630802,0.06278311,0.07284727,-0.09218968,0.2730999,-0.20612425,0.3559327,0.120145954,-0.19256818,0.100577086,-0.13418454,0.14223523,-0.2730425,0.049734484,-0.0020610201,0.032172345,-0.048052847,-0.105490774,0.20133401,0.11145824,-0.0797752,-0.04658257,0.04296139,0.028649712,-0.0776168,0.024159623,-0.086278126,-0.12235035,0.020419763,0.07626346,0.033602342,-0.0155603625,0.045436732,-0.08225328,0.1504657,-0.058428377,0.082907155,-0.05396648,0.0012365608,0.05269692,-0.0083367005,0.09865905,0.032114927,-0.2278926
RepPeteKing,-0.06488239,-0.017780159,-0.093938015,-0.36292234,0.059521157,-0.068522155,0.2007952,0.025412908,0.01742669,-0.024939394,0.24380782,-0.25400737,0.20471121,0.13212842,-0.17619576,0.089501105,-0.14215405,0.16604258,-0.2266082,0.08771425,-0.13236588,0.015067444,0.15119155,0.12266141,0.07219977,-0.00088788226,0.24338382,0.020539615,0.10105941,-0.18655442,-0.052170586,-0.05459366,-0.037037827,-0.049702983,0.031011613,0.16619003,0.16379918,0.166812,-0.30009568,-0.1480204,-0.025019575,-0.09897994,0.16793303,0.17758156,0.049392898,0.10755866,-0.0026023134,-0.06976342,0.098228864,-0.08139284
DanaRohrabacher,0.019492276,-0.1769893,-0.085872516,-0.0775459,0.01619342,-0.03245506,0.2898901,-0.11946521,-0.029071346,0.07118708,0.21435392,-0.19921911,0.14655507,0.15767051,-0.2198733,0.0669392,-0.09357551,0.22912762,-0.23250762,0.027612392,0.095672294,0.010731359,0.2199579,-0.07721494,0.11263024,-0.05950865,0.16977741,-0.037843037,0.038990192,-0.119552895,-0.16593766,0.24734868,-0.011245597,0.09185661,0.054946274,0.065681756,0.08493534,0.042513285,-0.2508402,-0.23475954,0.017945886,0.045709528,0.25648046,0.20505843,0.19634949,0.09959299,-0.08461093,-0.07196825,0.046740077,-0.13296337
RepJoeBarton,0.15353101,-0.33061284,-0.123116136,-0.07798173,0.03151153,0.012448667,0.25417843,-0.10905952,-0.017146844,0.075472146,0.12775962,-0.27941087,0.06565461,0.06684432,-0.16493168,0.12593964,-0.009045461,0.12723927,-0.20410031,-0.033347335,0.042414334,0.0776797,0.18279567,-0.0851024,0.052003127,0.10276568,0.05468357,-0.1421862,0.048254617,-0.014377292,-0.065442935,0.27923962,0.06013008,-0.030765275,0.004082942,0.15887794,0.021267707,-0.12565564,-0.18056266,-0.35829583,0.1438014,-0.0013593639,0.24815705,0.06993608,0.10519902,0.06779712,0.07506451,-0.0010014832,0.1840278,-0.19456421
michaelcburgess,0.15131477,-0.3306533,-0.10513062,-0.05930789,0.07111358,-0.029935855,0.24338861,-0.07854566,-0.051289514,0.0218325,0.14087725,-0.24046229,0.04984558,0.13960499,-0.17516571,0.066958874,0.01198746,0.12490433,-0.15555455,-0.0357809,0.09493679,0.05568284,0.19555861,-0.13745025,0.036742408,0.082116805,0.028680963,-0.1740858,0.08318009,0.01726351,-0.10989144,0.26704568,0.043474603,-0.0449604,-0.0130719915,0.119419515,-0.025565011,-0.15745355,-0.20535074,-0.33257928,0.13457851,0.033683717,0.27031362,0.08438943,0.14104696,0.08109848,0.090534426,-0.06526883,0.20063257,-0.16864407
George_LeMieux,-0.08248998,-0.10173158,0.12869276,-0.12221956,-0.13914141,0.124984816,0.22669953,0.10723379,0.030755796,-0.243561,0.11101642,-0.09805331,0.056225322,0.16253302,-0.13965009,0.28845924,-0.13715257,0.04393849,-0.15925287,0.032559577,-0.10790138,0.037605826,0.15648739,0.14000292,0.13207921,-0.12615363,0.069144286,-0.26833344,0.12565716,0.07078229,-0.052568506,0.013412116,0.0072008343,0.07296254,-0.052102868,0.076467976,0.108763546,-0.022788735,-0.22146884,0.043750804,0.07564373,0.04055151,0.115062915,0.014180268,-0.084175386,0.380364,-0.1133326,-0.12503529,0.3134711,-0.15563165
RepPhilGingrey,0.0061509963,-0.2086283,-0.064741045,-0.19628951,0.07446635,-0.07020839,0.2519553,-0.0021504832,0.01197282,0.07926236,0.14973651,-0.22322574,0.10644638,0.11365082,-0.2121218,0.07594694,-0.16474621,0.04154739,-0.25541034,0.029524872,0.033376448,-0.004295883,0.21111092,-0.106042735,0.0983568,-0.11320885,0.057161067,-0.1553667,0.10836783,-0.06824889,0.008398786,0.28239757,0.13120411,0.082224295,0.0010301259,0.052074004,0.10454026,-0.04124445,-0.15259063,-0.19152075,0.1813106,-0.06697289,0.2276354,0.13975206,0.17558125,0.17073795,-0.061982255,-0.12200607,0.3019517,-0.10079539
PeterRoskam,0.048272777,-0.17648178,-0.007825409,-0.17607422,0.13567562,-0.07877078,0.2163463,-0.0516516,0.046165407,0.012694895,0.2009175,-0.15357907,0.20052354,0.10605381,-0.20410803,0.23353994,-0.049475197,0.048851263,-0.1989556,0.07190309,0.16506608,0.15904172,0.21764882,-0.12455959,0.056498338,-0.09434874,-0.108676344,-0.07252165,0.14934768,-0.13461675,-0.018221453,0.18930745,0.07722089,-0.0040556677,0.16931772,0.16848963,0.014134158,-0.07918945,-0.14462353,-0.11178415,0.110944934,-0.0010449331,0.33380356,0.026595363,0.119910024,0.18745005,-0.043394968,-0.1859598,0.21394962,-0.13258691
RobWittman,0.09594623,-0.17415115,-0.096715406,-0.12669423,0.1935054,0.012877232,0.25325602,-0.00557799,0.06336192,-0.05073103,0.24952823,-0.23862101,0.13372236,0.16391994,-0.25939608,0.0100769745,0.03912575,0.11804652,-0.1342541,-0.00801237,0.2097893,0.04525082,0.17240366,-0.23084521,0.12330627,-0.09442732,-0.08270431,-0.18578868,0.17053004,-0.009003515,0.04614469,0.17322198,0.044488665,-0.03227185,0.101050116,0.045716446,-0.008579351,-0.06481228,-0.059332002,-0.21817039,0.10332967,0.00045339167,0.2812741,-0.06840768,0.2201323,0.09625786,-0.034178663,-0.14656106,0.18426895,-0.16258463
CantorPress,-0.07525202,-0.0014397765,-0.028241986,-0.36488014,0.046323746,0.045046147,0.18969186,0.04049231,0.17144836,-0.043479405,0.27427438,-0.088946186,0.2310202,-0.056125365,-0.15367496,0.17347264,-0.058909815,0.23566826,-0.13843435,-0.01070167,0.16478862,0.14971207,0.23465194,-0.078884326,0.1356185,-0.09579753,0.10668995,0.15101287,0.30941305,-0.20610608,0.02139724,-0.038092043,0.0598114,-0.0355259,0.12537189,0.13278025,-0.00046341206,0.12352202,-0.218481,-0.09498463,0.061405335,-0.08905965,0.09547116,0.108534046,0.028097596,0.094189614,0.100680776,-0.14915137,0.12954548,-0.03607883
LamarSmithTX21,0.10231328,-0.3343733,-0.086355135,-0.046551757,0.04095028,-0.012867247,0.26781082,-0.07210151,-0.010824551,0.027759776,0.14704894,-0.17856587,0.0558614,0.16598766,-0.15109403,0.13733216,-0.04555987,0.09697513,-0.15812829,-0.06425966,0.06647002,0.12212815,0.18546245,-0.10901639,0.0108447,0.010891499,0.056830756,-0.17425753,0.08536441,0.018218787,-0.08619383,0.23823407,0.09189364,-0.050636712,-0.062084343,0.1624638,-0.05027891,-0.14604986,-0.25933757,-0.35038725,0.14125371,0.03264603,0.2526495,0.06568213,0.13810892,0.08075457,0.07042921,-0.10507116,0.1795548,-0.18048005
BuckMcKeon,0.057737403,-0.083911195,0.036872607,-0.116942026,0.008828287,0.024774602,0.26247087,-0.05487837,0.03709898,0.0392238,0.26329648,-0.17621161,0.18879493,0.16849913,-0.188833,0.13791546,-0.13814723,0.13953371,-0.13583745,-0.0052705067,0.16017301,0.065224044,0.1768128,-0.14548238,0.07129282,-0.1460216,0.011916088,-0.123371355,0.15491442,-0.10707243,-0.047247317,0.18183137,0.09414746,0.0842003,-0.015997658,0.104306,0.060591593,-0.06853826,-0.20638497,-0.28103796,0.123638146,-0.009836825,0.24795008,0.13299406,0.24066913,0.1899313,-0.05885567,-0.13270901,0.15536658,-0.19313191
RepKucinich,0.0685896,-0.051219877,-0.08963595,-0.07938668,0.05491482,-0.026258066,0.01196954,0.10144651,-0.049121425,-0.15847953,0.0631496,0.074942626,0.14969498,0.23182347,0.06770662,0.15322006,0.08077754,-0.04237526,-0.35030434,0.06472258,-0.17337896,-0.10255918,-0.1615208,-0.23782954,0.21405293,0.1416847,-0.038805645,0.32632047,0.02567538,-0.013399704,-0.13662256,0.185449,-0.091125645,0.13291387,-0.048292395,0.19762255,0.07310121,0.013149121,-0.10835405,-0.25835705,-0.09017838,-0.09373593,0.15138526,-0.096925385,-0.21090522,-0.258575,-0.05818557,0.10641484,-0.008735955,0.099482745
RepMaryFallin,0.09154122,-0.2400249,-0.054005966,-0.094113275,0.057416823,0.015703171,0.24861228,-0.06932375,-0.08661768,0.063301325,0.19609271,-0.2154104,0.16921128,0.1855088,-0.26329783,0.04263644,0.03715725,0.124883115,-0.20366305,0.021535808,0.17286475,0.029397529,0.16659707,-0.10644578,0.09974886,0.007819039,0.06792881,-0.20728727,0.08235484,0.01458699,-0.06340316,0.26297477,-0.0024036248,-0.022635018,0.029782584,0.054801073,0.06359227,-0.15574089,-0.09200862,-0.20959899,0.12950434,-0.0004993134,0.28776515,0.12215189,0.19278575,0.18388407,0.0032876781,-0.11712554,0.14366527,-0.2237278
JohnEnsign,0.16064872,-0.21395946,-0.22937518,-0.16061634,-0.06329532,0.055889852,0.31387964,-0.038788643,0.06613704,-0.059274532,0.19660038,-0.24867505,0.25850943,0.11916525,-0.293951,-0.0021859787,0.044157326,0.2201483,-0.23465848,0.029026926,0.15794668,0.09733522,0.11683276,-0.094283916,0.07528971,0.09221676,-6.352688e-05,-0.10315297,0.09213293,0.03877105,-0.18026479,0.12399893,0.010053198,-0.07976643,0.02690871,0.045176778,-0.084190965,-0.1383308,-0.08872642,-0.12541187,0.027258428,-0.06674772,0.23512562,-0.050324034,0.11672728,0.08482443,0.13428222,-0.083433606,-0.060730748,-0.22249024
PatrickMcHenry,0.03452198,-0.18813679,0.011143317,-0.15505333,0.08779916,-0.07357375,0.29534042,-0.08486769,-0.044732757,0.025717909,0.20688495,-0.22062027,0.119714625,0.18275213,-0.25576034,0.08759961,-0.056021594,0.12818003,-0.19070484,-0.051505327,0.11827632,0.10396912,0.13398178,-0.15352634,-0.03598211,-0.06890039,0.054042958,-0.124351345,0.2058331,-0.09595688,0.06509112,0.21418042,0.061996877,-0.022997221,0.098555155,0.20239009,0.07135858,-0.079075195,-0.12474661,-0.26990438,0.14428088,-0.09115333,0.21178071,0.093848735,0.12992437,0.19531669,-0.11621749,-0.04338928,0.16414988,-0.17541815
TomRooney,0.034482338,-0.14001395,0.09213142,-0.054950114,-0.056888692,0.011083335,0.2945668,0.022037752,-0.009507313,-0.06920803,0.2168113,-0.19225475,0.0934047,0.08906272,-0.21302342,0.21284525,-0.11606481,0.060552508,-0.12634745,0.0083767595,0.022176215,0.045932863,0.1785132,-0.04068194,0.09982113,-0.12374137,0.12536769,-0.25666645,0.14329661,-0.06280305,0.03210512,0.18316011,0.029952915,0.11714185,-0.005100257,0.088428505,0.12713696,0.019873274,-0.18253727,-0.10506616,0.10664567,0.04333907,0.10195682,0.13025744,0.12102563,0.36881775,-0.14640343,-0.059824955,0.35815948,-0.1330922
ChrisVanHollen,0.10751594,-0.096515216,-0.07392316,-0.30985978,0.21878502,0.041228294,0.2200883,0.14501199,0.17316015,-0.26073685,0.09710869,-0.116628386,0.2069922,-0.02342613,0.22932997,0.20673591,-0.29315484,0.07010539,-0.06686886,0.0034311912,0.18072602,0.020850465,-0.017582538,-0.114762895,0.13203606,0.071933106,-0.19138634,0.17243198,0.057297345,-0.047926784,0.121581174,-0.17194174,-0.024382776,-0.07923693,0.08967039,0.10252759,0.056944534,0.2753739,-0.05478959,0.053195946,0.006930185,0.025564095,-0.021425918,-0.160465,0.0800079,-0.16280024,-0.1482213,0.0430399,0.10421268,-0.115103744
RepKristiNoem,-0.22005695,-0.03593644,-0.016217425,-0.2834524,0.02402733,-0.049317703,0.1435678,-0.026598142,0.012611048,0.017450688,0.22139338,-0.2168136,0.10218273,0.24331129,-0.09215285,0.2046862,-0.16394377,0.14913796,-0.2127516,-0.017608711,-0.05368285,0.026328985,0.1926371,0.09579851,0.06911593,-0.0027172158,0.23914333,-0.06042731,0.23726922,-0.110317424,0.09710761,0.09421722,0.056332413,0.05108788,0.013084962,0.13198575,0.2313563,0.042535122,-0.21766913,-0.15407076,0.22243907,-0.14224252,0.1602545,0.15010116,-0.012862932,0.15853652,0.050881956,-0.10373051,0.12978683,-0.0929085
ChrisCoons,0.16527985,-0.11530494,-0.16336702,-0.2409215,0.020001654,0.11608276,0.21114095,0.16668294,-0.029601308,-0.12247184,0.2850353,-0.16759756,0.34712225,0.015895152,-0.060724813,0.294166,-0.21557558,0.09350383,-0.119303234,0.06545437,0.09292348,-0.057675295,-0.055867504,-0.03336371,0.13853517,0.08679204,-0.19627509,0.07950129,0.100487545,0.0029085681,0.062303133,-0.1281121,-0.19369367,-0.16317132,0.085187875,0.11132023,0.0010574451,0.07375761,0.17492121,-0.03196188,0.12538949,-0.090327896,0.022978414,-0.11777203,-0.060454365,-0.2128077,0.0077162054,0.12501913,-0.033774458,-0.1882476
RepSteveIsrael,0.15456228,-0.10884529,-0.16695017,-0.29149345,0.1167878,0.09511445,0.25065446,0.056285247,0.10811771,-0.33672136,0.20625095,-0.09918627,0.31059176,0.014841235,-0.0798719,0.12090798,-0.20225039,0.19897875,-0.17133442,0.08739425,0.03846151,-0.031673793,0.08523228,-0.11956784,0.24652015,-0.013105772,-0.22453223,0.025369363,0.046647593,0.019193718,0.033173632,-0.106660575,-0.15536869,-0.12990522,-0.014147408,0.03288759,0.06275668,0.22369158,0.056823622,-0.10261769,-0.06935153,0.06116464,0.101184234,-0.17193896,0.041748255,-0.113711625,-0.06907835,-0.014739729,0.105539925,-0.09931607
WaysandMeansGOP,-0.020452699,0.0037125587,-0.04213248,-0.28066373,0.12891257,0.12332146,0.26554117,-0.05080698,0.15064923,-0.043093897,0.28329813,-0.046073113,0.19799842,0.09386249,-0.17814595,0.027515033,-0.04541601,0.053304013,-0.15411568,-0.10302845,0.21010679,0.14505292,0.16272177,-0.11456929,0.14500353,-0.17013791,0.0997889,-0.05059913,0.208484,-0.057124082,-0.09222616,0.10339604,0.11760741,-0.11844241,0.033181757,0.18979628,0.0663995,-0.1496543,-0.2080318,-0.1508628,0.13456045,-0.0334631,0.16350745,0.07030688,0.178812,0.19071811,0.088076174,-0.1201132,0.22384962,-0.06938671
RepShimkus,0.13643567,-0.22907118,-0.07187792,-0.17808408,0.11417869,-0.004852755,0.23642266,-0.042574063,0.017426398,0.020890817,0.20829293,-0.16053931,0.24144988,0.08905223,-0.18454754,0.15286183,-0.019638201,0.07702344,-0.18464753,0.08106484,0.16489066,0.10036296,0.18477175,-0.18202993,0.11743063,-0.04353176,-0.10074848,-0.103038065,0.12711893,-0.10664066,0.014734678,0.28407001,0.017529706,0.042729795,0.13301316,0.15855406,0.05979464,-0.035984468,-0.11773799,-0.14751318,0.089680694,0.06603847,0.31430322,0.072141334,0.16552725,0.15804863,-0.04088805,-0.122917354,0.21899825,-0.11100131
HouseCommerce,0.08397045,-0.07899474,-0.10258857,-0.1901317,0.1838486,0.12286278,0.22820842,-0.03264902,0.043974377,0.017391577,0.33192354,-0.0945281,0.22733365,0.12078327,-0.15991458,0.15703732,-0.15581994,-0.026717879,-0.13549674,0.0070977,0.21044807,0.12052352,0.13540243,-0.23692039,0.23163696,-0.08877644,-0.00799911,-0.043114685,0.17720602,-0.0759729,0.013876164,0.21037528,0.09546012,0.010639465,-0.03989707,0.16258961,0.07876968,0.0005594669,-0.06260462,-0.22430386,0.19504948,-0.0055517345,0.09694941,0.07853599,0.11590127,0.13249145,-0.061767142,-0.09288327,0.2757641,-0.087017335
Randy_Forbes,0.08117856,-0.18243943,-0.06396554,-0.14988801,0.19633816,-0.01675427,0.25703284,-0.01407818,0.058271646,-0.04148534,0.22829601,-0.2543876,0.11488524,0.15504397,-0.2410449,0.0020810014,0.01705536,0.13568494,-0.14535907,-0.016908918,0.17956811,0.008332718,0.17962009,-0.19504844,0.13929911,-0.08465022,-0.02939567,-0.20376694,0.16218045,-0.047020018,0.028475435,0.20138487,0.081233285,-0.033844274,0.09573811,0.07851536,0.010360204,-0.061636955,-0.08482624,-0.21744317,0.12438724,-0.0018315727,0.27144647,0.0065177414,0.24105641,0.14370222,-0.06332853,-0.11394339,0.20519723,-0.14522783
RepPaulBrounMD,0.0050347517,-0.21562093,-0.08474639,-0.23002303,0.12791038,-0.11180966,0.23538226,0.030303175,0.014306867,0.01942321,0.09555891,-0.16309166,0.05322961,0.16675645,-0.17551337,0.088785514,-0.10744393,0.071623065,-0.28299484,-0.006037297,-0.016391424,-0.08182314,0.24120326,-0.11798531,0.10123326,-0.0008251674,0.05075432,-0.110266574,0.10756519,-0.02708107,-0.09057562,0.3179511,0.11574204,0.09295925,-0.022638513,0.062039047,0.009450348,-0.066472046,-0.22359435,-0.19704358,0.14288664,-0.060682774,0.28977647,0.13520105,0.15236932,0.1344797,-0.06564588,-0.08937929,0.25903395,-0.11552066
RepMikeHonda,0.16272366,-0.17050317,-0.10876585,-0.12193692,0.17711984,0.16621113,0.25777847,0.03572195,0.025461953,-0.2207514,0.17632653,-0.00699208,0.22330195,0.046885747,-0.030819371,0.12216983,-0.21030462,0.19091617,-0.22225672,-0.0047731474,0.09487772,0.03704718,0.0053181993,-0.23584282,0.3164442,0.03580703,-0.2588429,0.050332315,0.026599608,0.018008666,-0.06695651,0.10891003,-0.14427066,0.004762265,-0.09771311,0.077194974,0.058914028,0.10878329,0.10749094,-0.20855998,-0.08418433,0.13704032,0.2206038,-0.06600761,0.12072574,-0.050684184,-0.12556365,0.014393419,0.068804815,-0.18622375
SenatorBegich,0.20980828,-0.18412048,-0.23416963,-0.28604677,0.083472125,0.1650157,0.18246531,0.05545017,-0.022756882,-0.026153404,0.25545707,-0.16068748,0.34689754,0.14531294,-0.10134293,0.17783761,-0.2086241,0.12348099,-0.24082483,0.12175547,0.02466207,0.029820008,-0.09063782,-0.14916985,0.25845996,0.07551266,-0.099838644,0.020739002,0.00897188,-0.032308336,0.07207777,0.015752118,-0.08249409,-0.044099603,-0.010133743,0.12559606,0.10070069,0.059189998,0.07723852,-0.13037528,0.20313385,-0.0040518953,0.010691195,-0.011534386,-0.052052684,-0.044136506,-0.06715564,0.11383533,0.09518384,-0.22858511
virginiafoxx,0.120812185,-0.19779791,-0.02881982,-0.20573436,0.13110073,-0.047579948,0.31782123,-0.11823234,-0.025359081,-0.025638187,0.19443764,-0.24096578,0.14949027,0.13323738,-0.24595469,0.08250961,-0.044788674,0.18682683,-0.18344696,-0.005028568,0.108910196,0.066452436,0.078304924,-0.11054909,0.053262126,-0.00032973912,0.078608915,-0.08616804,0.18664898,-0.09413314,0.08157048,0.22133793,0.005673087,-0.010132699,0.03867765,0.1900911,0.09409974,-0.064586386,-0.11550506,-0.270244,0.1518227,-0.038203884,0.19330479,0.072801,0.16383126,0.14256808,-0.10934534,-0.0065675206,0.17629932,-0.22027135
RepMikeCoffman,0.036252428,-0.062944084,-0.16112892,-0.09133444,0.27372774,0.046286657,0.30569082,0.04089071,-0.040462,-0.124660775,0.20344657,-0.15704158,0.07020731,0.2358016,-0.23617898,-0.008014048,-0.07694316,0.23298994,-0.245,0.07144918,0.01706896,-0.036649406,0.12820879,-0.14939584,0.08989259,-0.07213872,-0.18517019,-0.213348,0.06699025,0.042397384,-0.0755059,0.24705204,-0.04809554,0.018190771,0.0064812284,0.15001673,0.026708376,-0.043819956,-0.09748244,-0.20095657,0.09923013,-0.004829099,0.24388413,0.042510554,0.11218851,0.20895933,-0.0682078,-0.10593041,0.13365184,-0.1339165
janschakowsky,0.19774878,-0.1955646,-0.03930544,-0.22797105,0.2583612,-0.0015477096,0.12726238,0.1882006,0.0853622,-0.1708774,0.033160005,0.07718248,0.25690746,-0.043968096,0.062464077,0.303117,-0.18674073,0.10302629,-0.18937692,0.15448071,0.034175046,0.11342724,-0.015614964,-0.11592669,0.21306002,0.11535155,-0.298115,0.22264434,-0.049236834,-0.066293135,-0.012437307,0.0044735856,-0.16583613,-0.045148212,0.04870954,0.16807856,0.112130776,0.17096713,-0.015207988,0.0825544,-0.05285427,0.104327224,0.15137096,-0.07153513,-0.0352574,-0.12525651,-0.08669014,0.04377516,0.12978151,-0.11185435
StabenowPress,0.2075011,-0.19281676,-0.13118322,-0.28559387,0.100670196,0.08929147,0.16280945,0.11829696,-0.14512514,-0.034402583,0.28263608,-0.047077466,0.34619686,0.13141291,0.088998556,0.08829704,-0.2037503,0.045492027,-0.15484485,0.07143351,0.19988903,0.034200124,-0.14163056,-0.30465016,0.20695542,0.09725943,-0.17890295,-0.005580353,0.045373783,0.023258124,-0.010104881,0.044576224,-0.04383905,-0.0156357,-0.04730635,0.14634193,0.049351566,0.041758098,0.119280174,-0.13293372,0.15874738,-0.009001543,-0.028218532,0.0075321156,0.051737916,-0.06818221,0.012025283,0.1453992,0.042439926,-0.26660654
FrankLautenberg,0.20234583,-0.07595493,-0.24729471,-0.2852342,0.18993972,0.19548377,0.15856145,0.21632579,-0.058620755,-0.126346,0.19516796,-0.03680187,0.27865702,0.1380021,0.036836263,0.07720052,-0.18086381,0.07374081,-0.15832575,0.08060297,0.0023191958,-0.040440187,-0.1793376,-0.09417183,0.18101779,0.03166782,-0.18752153,-0.013329734,-0.10883106,0.053482205,0.12516601,-0.11568488,-0.1175238,-0.14612511,-0.069821,0.09302092,0.10753153,0.09436246,0.1607704,-0.13015473,0.21838742,-0.031360783,-0.10773959,-0.009350551,-0.07552915,-0.023932833,-0.21706568,0.18695816,0.040401876,-0.11890452
HispanicCaucus,0.1426632,-0.1624114,-0.008954305,-0.08118622,0.3497952,0.21319948,0.22053708,0.10908568,0.018593922,-0.21784933,0.09049687,0.105618626,0.09795229,-0.06944216,0.12661108,0.063491195,-0.28948843,0.09208157,-0.15163298,-0.036630534,0.10958627,0.15352063,-0.0015917226,-0.20030594,0.30897766,-0.025495494,-0.15970494,-0.0011188732,-0.18794869,-0.011765187,-0.03777641,-0.011916831,0.0124180075,-0.1161087,-0.19777584,0.12725961,0.14748932,0.15104331,0.033969223,-0.15068093,-0.057967633,0.20468393,0.0723527,-0.0493699,0.052366283,0.1488645,-0.19862315,-0.039280605,0.09558712,-0.017734056
RepKenMarchant,0.100342125,-0.2902318,-0.030571776,-0.06851214,0.03416211,-0.03377531,0.24460836,-0.09699137,-0.028084977,0.052782506,0.15278296,-0.22747838,0.053078797,0.148553,-0.13744847,0.12801178,-0.031739548,0.07848266,-0.1730713,-0.05742096,0.083338566,0.07494104,0.20158215,-0.099718265,0.025684962,0.003050641,0.089246474,-0.19299215,0.08188934,0.014521332,-0.046133064,0.2594015,0.12049046,-0.0103037115,-0.045699682,0.16600326,-0.008104,-0.11631257,-0.25755197,-0.35191116,0.1523407,0.026834246,0.22919688,0.091054104,0.16253734,0.15382642,0.007443029,-0.064694025,0.22770897,-0.1579821
RepBecerra,0.09273161,-0.115844876,-0.04582823,-0.19002062,0.28122407,0.22171183,0.18423378,0.055803098,0.11692458,-0.23182902,0.16597892,0.011949106,0.25258732,-0.031864006,0.08932865,0.19258244,-0.30247673,0.18421847,-0.21745932,-0.018616714,0.090855606,0.071426794,0.02488472,-0.17469835,0.3202987,0.0051438096,-0.19334589,0.076143205,-0.009887418,-0.025720473,0.0200151,-0.023013849,-0.036921512,-0.0632346,-0.06483854,0.08454043,0.15715916,0.23484161,0.052823845,-0.15222752,-0.054082204,0.16202876,0.093576014,-0.053572163,0.056557465,-0.049463004,-0.13763872,0.0060671438,0.06633375,-0.10990139
